<?xml version="1.0"?>
<opencv_storage>
<my_svm type_id="opencv-ml-svm">
  <svm_type>C_SVC</svm_type>
  <kernel><type>LINEAR</type></kernel>
  <C>1.</C>
  <term_criteria><epsilon>2.2204460492503131e-016</epsilon>
    <iterations>1000</iterations></term_criteria>
  <var_all>3000</var_all>
  <var_count>3000</var_count>
  <class_count>2</class_count>
  <class_labels type_id="opencv-matrix">
    <rows>1</rows>
    <cols>2</cols>
    <dt>i</dt>
    <data>
      0 1</data></class_labels>
  <sv_total>215</sv_total>
  <support_vectors>
    <_>
      1.00827971e-002 0. 0. 0. 0. 1.26722798e-001 4.34647407e-003 0. 0.
      0. 0. 0. 0. 0. 0. 0. 0. 0. 0. 0. 0. 0. 0. 0. 0. 9.83489603e-002 0.
      0. 0. 0. 0. 0. 0. 6.36918992e-002 0. 0. 0. 0. 0. 2.77754106e-002
      0. 0. 0. 5.60311601e-002 0. 0. 0. 0. 0. 0. 0. 0. 0. 0.
      5.59553318e-002 4.32473272e-002 0. 0. 0. 0. 0. 0. 0. 0.
      8.66731815e-003 0. 0. 0. 0. 0. 0. 0. 0. 5.63632976e-003
      3.19215357e-002 3.35338525e-002 2.13529989e-001 0. 0. 0. 0. 0. 0.
      0. 0. 0. 0. 0. 0. 0. 0. 0. 0. 0. 0. 0. 0. 0. 5.81062697e-002 0. 0.
      0. 2.11069629e-001 8.99487883e-002 0. 0. 3.04871369e-002 0. 0. 0.
      0. 0. 0. 0. 0. 9.29869339e-002 0. 0. 7.88546056e-002 0. 0.
      6.48344159e-002 0. 0. 0. 9.06477720e-002 0. 0. 0. 0.
      8.25206190e-002 0. 0. 7.13854879e-002 0. 0. 3.61654386e-002 0.
      2.32495982e-002 0. 0. 0. 0. 0. 3.69077288e-002 0. 0. 0. 0. 0. 0.
      1.03293724e-001 8.15151334e-002 0. 1.70945451e-002 0. 0. 0.
      1.71570610e-002 0. 0. 0. 0. 0. 0. 0. 0. 0. 0. 0. 0. 0. 0.
      2.60975361e-002 0. 0. 0. 0. 0. 7.17377812e-002 0. 0.
      6.37108535e-002 0. 0. 9.33872610e-002 0. 0. 0. 0. 0.
      5.91491275e-002 0. 0. 0. 0. 0. 0. 2.01990977e-002 0. 0. 0. 0.
      2.51943506e-002 0. 8.43526497e-002 0. 0. 0. 0. 5.76048419e-002 0.
      0. 0. 0. 0. 0. 5.62189855e-002 0. 2.61281300e-002 0. 0. 0. 0.
      2.19676495e-002 0. 3.55236344e-002 0. 0. 1.07791182e-002 0. 0.
      4.04922925e-002 0. 0. 0. 0. 0. 0. 0. 0. 0. 3.28777358e-002 0.
      3.33438963e-002 0. 0. 0. 0. 8.33399314e-003 0. 0. 0. 0. 0. 0. 0.
      0. 3.80179621e-002 0. 0. 0. 0. 0. 0. 8.11694115e-002
      8.90057534e-002 0. 0. 0. 0. 0. 0. 0. 0. 0. 0. 0. 7.25258514e-002
      0. 0. 0. 0. 5.76469302e-002 0. 0. 0. 0. 5.19276317e-003 0. 0. 0.
      0. 0. 0. 0. 0. 0. 0. 0. 0. 0. 0. 4.91192602e-002 6.94859624e-002
      0. 0. 0. 0. 3.21425274e-002 0. 0. 0. 0. 0. 0. 0. 4.55734730e-002
      0. 0. 0. 0. 0. 0. 0. 0. 0. 0. 0. 3.66006698e-003 0. 0. 0. 0.
      2.40276922e-002 0. 0. 0. 3.23076658e-002 0. 0. 0. 0. 0. 0. 0. 0.
      0. 6.56030998e-002 0. 0. 0. 0. 2.15875171e-002 0. 0. 0. 0.
      6.64561763e-002 0. 0. 0. 0. 1.70215382e-003 0. 0. 0.
      1.13702126e-001 0. 0. 0. 0. 0. 0. 0. 0. 0. 0. 0. 0.
      6.02887832e-002 0. 7.02556968e-002 0. 0. 0. 0. 0. 9.27190483e-002
      0. 0. 3.26702148e-002 2.97242347e-002 0. 0. 0. 7.29788616e-002 0.
      0. 0. 3.66142094e-002 0. 0. 0. 0. 5.12768403e-002 0. 0. 0. 0. 0.
      7.91125968e-002 0. 0. 0. 0. 0. 1.10285692e-001 0. 1.18836956e-002
      1.96585096e-002 0. 1.18681975e-001 0. 7.43093863e-002 0. 0. 0. 0.
      0. 0. 2.21518446e-002 0. 2.83866767e-002 0. 0. 0. 0. 0. 0. 0. 0.
      0. 0. 0. 3.28110233e-002 0. 0. 1.02233507e-001 0. 0. 0. 0. 0. 0.
      0. 0. 0. 0. 0. 0. 9.35715213e-002 0. 0. 0. 0. 0. 4.79154140e-002
      3.47883329e-002 0. 0. 0. 2.00332180e-002 0. 0. 0. 0. 0. 0. 0. 0.
      0. 0. 0. 0. 0. 0. 0. 0. 0. 0. 0. 0. 0. 0. 0. 0. 2.76404601e-002 0.
      0. 0. 0. 0. 0. 0. 0. 0. 0. 0. 1.38564691e-001 0. 1.11470655e-001
      0. 0. 0. 0. 6.70285150e-002 0. 0. 0. 0. 0. 0. 0. 0. 0.
      4.84391078e-002 6.87752590e-002 0. 0. 0. 0. 0. 0. 0. 0. 0. 0. 0.
      1.04208812e-004 0. 0. 0. 0. 0. 0. 0. 0. 0. 1.10052444e-001
      5.51404525e-003 0. 0. 0. 6.06743023e-002 0. 4.68082651e-002 0. 0.
      0. 7.72538856e-002 0. 0. 0. 0. 0. 8.15993771e-002 0. 0. 0. 0.
      5.38278967e-002 0. 0. 0. 0. 0. 0. 0. 0. 0. 0. 0. 0. 0. 0. 0. 0. 0.
      8.58153626e-002 0. 0. 4.21183966e-002 0. 0. 0. 0. 0.
      5.66384532e-002 0. 0. 0. 0. 0. 0. 1.26722798e-001 0. 0. 0. 0. 0.
      0. 0. 0. 0. 0. 0. 0. 0. 0. 0. 0. 0. 0. 0. 9.83489603e-002 0. 0. 0.
      0. 0. 0. 0. 6.36918992e-002 0. 0. 0. 0. 0. 0. 0. 0. 0.
      5.60311601e-002 0. 0. 0. 0. 0. 0. 0. 0. 0. 0. 0. 4.32473272e-002
      0. 0. 0. 0. 0. 0. 0. 0. 0. 0. 0. 0. 0. 0. 0. 0. 0. 5.63632976e-003
      3.19215357e-002 3.35338525e-002 2.13529989e-001 0. 0. 0. 0. 0. 0.
      0. 0. 0. 0. 0. 0. 0. 0. 0. 0. 0. 0. 0. 0. 0. 0. 0. 0. 0.
      2.11069629e-001 0. 0. 0. 3.04871369e-002 0. 0. 0. 0. 0. 0. 0. 0.
      0. 0. 0. 0. 0. 0. 0. 0. 0. 0. 9.06477720e-002 0. 0. 0. 0.
      8.25206190e-002 0. 0. 7.13854879e-002 0. 0. 0. 0. 2.32495982e-002
      0. 0. 0. 0. 0. 0. 0. 0. 0. 0. 0. 0. 0. 8.15151334e-002 0.
      1.70945451e-002 0. 0. 0. 0. 0. 0. 0. 0. 0. 0. 0. 0. 0. 0. 0. 0. 0.
      0. 2.60975361e-002 0. 0. 0. 0. 0. 0. 0. 0. 0. 0. 0.
      9.33872610e-002 0. 0. 0. 0. 0. 0. 0. 0. 0. 0. 0. 0. 0. 0. 0. 0. 0.
      0. 0. 0. 0. 0. 0. 0. 0. 0. 0. 0. 0. 0. 0. 5.62189855e-002 0.
      2.61281300e-002 0. 0. 0. 0. 0. 0. 0. 0. 0. 1.07791182e-002 0. 0.
      0. 0. 0. 0. 0. 0. 0. 0. 0. 0. 0. 0. 0. 0. 0. 0. 0. 8.33399314e-003
      0. 0. 0. 0. 0. 0. 0. 0. 0. 0. 0. 0. 0. 0. 0. 0. 0. 0. 0. 0. 0. 0.
      0. 0. 0. 0. 0. 0. 0. 0. 0. 0. 0. 0. 0. 0. 0. 0. 5.19276317e-003 0.
      0. 0. 0. 0. 0. 0. 0. 0. 0. 0. 0. 0. 0. 0. 0. 0. 0. 0. 0.
      3.21425274e-002 0. 0. 0. 0. 0. 0. 0. 4.55734730e-002 0. 0. 0. 0.
      0. 0. 0. 0. 0. 0. 0. 0. 0. 0. 0. 0. 2.40276922e-002 0. 0. 0. 0. 0.
      0. 0. 0. 0. 0. 0. 0. 0. 6.56030998e-002 0. 0. 0. 0. 0. 0. 0. 0. 0.
      6.64561763e-002 0. 0. 0. 0. 0. 0. 0. 0. 0. 0. 0. 0. 0. 0. 0. 0. 0.
      0. 0. 0. 0. 6.02887832e-002 0. 7.02556968e-002 0. 0. 0. 0. 0. 0.
      0. 0. 0. 0. 0. 0. 0. 7.29788616e-002 0. 0. 0. 0. 0. 0. 0. 0. 0. 0.
      0. 0. 0. 0. 1.66172124e-002 0. 0. 0. 0. 0. 1.10285692e-001 0.
      1.18836956e-002 0. 0. 0. 0. 7.43093863e-002 0. 0. 0. 0. 0. 0. 0.
      0. 2.83866767e-002 0. 0. 0. 0. 0. 0. 0. 0. 0. 0. 0.
      7.90398475e-003 0. 0. 1.02233507e-001 0. 0. 0. 0. 0. 0. 0. 0. 0.
      0. 0. 0. 0. 0. 0. 0. 0. 0. 0. 0. 0. 0. 0. 0. 0. 0. 0. 0. 0. 0. 0.
      0. 0. 0. 0. 0. 0. 0. 0. 0. 0. 0. 0. 0. 0. 0. 0. 0. 2.76404601e-002
      0. 0. 0. 0. 0. 0. 0. 0. 0. 0. 0. 8.06966498e-002 0. 0. 0. 0. 0. 0.
      0. 0. 0. 0. 0. 0. 0. 0. 0. 0. 0. 6.87752590e-002 0. 0. 0. 0. 0. 0.
      0. 0. 0. 0. 0. 0. 0. 0. 0. 0. 0. 0. 0. 0. 0. 0. 5.51404525e-003 0.
      0. 0. 0. 0. 0. 0. 0. 0. 0. 0. 0. 0. 0. 0. 0. 0. 0. 0. 0.
      5.38278967e-002 0. 0. 0. 0. 0. 0. 0. 0. 0. 0. 0. 0. 0. 0. 0. 0. 0.
      8.58153626e-002 0. 0. 0. 0. 0. 0. 0. 0. 5.66384532e-002 0.
      1.00827971e-002 0. 0. 0. 0. 0. 0. 0. 0. 0. 0. 0. 0. 0. 0. 0. 0. 0.
      0. 0. 0. 0. 0. 0. 0. 0. 0. 0. 0. 0. 0. 0. 0. 0. 0. 0. 0. 0. 0. 0.
      0. 0. 0. 0. 0. 0. 0. 0. 0. 0. 0. 0. 0. 0. 5.59553318e-002 0. 0. 0.
      0. 0. 0. 0. 0. 0. 0. 0. 0. 0. 0. 0. 0. 0. 0. 0. 0. 0. 0. 0. 0. 0.
      0. 0. 0. 0. 0. 0. 0. 0. 0. 0. 0. 0. 0. 0. 0. 0. 0. 0.
      5.81062697e-002 0. 0. 0. 0. 0. 0. 0. 0. 0. 0. 0. 0. 0. 0. 0. 0. 0.
      0. 0. 7.88546056e-002 0. 0. 6.48344159e-002 0. 0. 0. 0. 0. 0. 0.
      0. 0. 0. 0. 0. 0. 0. 0. 0. 0. 0. 0. 0. 0. 0. 3.69077288e-002 0. 0.
      0. 0. 0. 0. 0. 0. 0. 0. 0. 0. 0. 1.71570610e-002 0. 0. 0. 0. 0. 0.
      0. 0. 0. 0. 0. 0. 0. 0. 0. 0. 0. 0. 0. 0. 0. 0. 0. 4.26105224e-002
      0. 0. 0. 0. 0. 0. 0. 0. 0. 0. 0. 0. 0. 0. 0. 2.01990977e-002 0. 0.
      0. 0. 0. 0. 0. 0. 0. 0. 0. 5.76048419e-002 0. 0. 0. 0. 0. 0. 0. 0.
      0. 0. 0. 0. 0. 2.19676495e-002 0. 0. 0. 0. 0. 0. 0.
      4.04922925e-002 0. 0. 0. 0. 0. 0. 0. 0. 0. 0. 0. 3.33438963e-002
      0. 0. 0. 0. 0. 0. 0. 0. 0. 0. 0. 0. 0. 0. 0. 0. 0. 0. 0. 0.
      8.11694115e-002 8.90057534e-002 0. 0. 0. 0. 0. 0. 0. 0. 0. 0. 0.
      7.25258514e-002 0. 0. 0. 0. 5.76469302e-002 0. 0. 0. 0. 0. 0. 0.
      0. 0. 0. 0. 0. 0. 0. 0. 0. 0. 0. 0. 0. 0. 0. 0. 0. 0. 0. 0. 0. 0.
      0. 0. 0. 0. 0. 0. 0. 0. 0. 0. 0. 0. 0. 0. 0. 0. 0. 0. 0. 0. 0. 0.
      0. 0. 0. 3.23076658e-002 0. 0. 0. 0. 0. 0. 0. 0. 0. 0. 0. 0. 0. 0.
      2.15875171e-002 0. 0. 0. 0. 0. 0. 0. 0. 0. 0. 0. 0. 0. 0. 0. 0. 0.
      0. 0. 0. 0. 0. 0. 0. 0. 0. 7.00055156e-003 0. 0. 0. 0. 0. 0. 0.
      9.27190483e-002 0. 0. 3.26702148e-002 0. 0. 0. 0. 0. 0. 0. 0. 0.
      0. 0. 0. 0. 5.12768403e-002 0. 0. 0. 0. 0. 0. 0. 0. 0. 0. 0. 0. 0.
      0. 0. 0. 1.18681975e-001 0. 0. 0. 0. 0. 0. 0. 0. 0. 0. 0. 0. 0. 0.
      0. 0. 0. 0. 0. 0. 0. 0. 3.28110233e-002 0. 0. 0. 0. 0. 0. 0. 0. 0.
      0. 0. 0. 0. 0. 0. 0. 0. 0. 0. 0. 0. 0. 3.47883329e-002 0. 0. 0.
      2.00332180e-002 0. 0. 0. 0. 0. 0. 0. 0. 0. 0. 0. 0. 0. 0. 0. 0. 0.
      0. 0. 0. 0. 0. 0. 0. 0. 0. 0. 0. 0. 0. 0. 0. 0. 0. 0. 0. 0. 0. 0.
      0. 0. 0. 0. 6.70285150e-002 0. 0. 0. 0. 0. 0. 0. 0. 0.
      4.84391078e-002 0. 0. 0. 0. 0. 0. 0. 0. 0. 0. 0. 0.
      1.04208812e-004 0. 0. 0. 0. 0. 0. 0. 0. 0. 0. 0. 0. 0. 0. 0. 0. 0.
      0. 0. 0. 0. 0. 0. 0. 0. 0. 8.15993771e-002 0. 0. 0. 0. 0. 0. 0. 0.
      0. 0. 0. 0. 0. 0. 0. 0. 0. 0. 0. 0. 0. 0. 0. 0. 0. 0. 0. 0. 0. 0.
      0. 0. 0. 0. 0. 0. 0. 0. 0. 4.34647407e-003 0. 0. 0. 0. 0. 0. 0. 0.
      0. 0. 0. 0. 0. 0. 0. 0. 0. 0. 4.82966751e-002 0. 0. 0. 0. 0. 0. 0.
      0. 0. 0. 0. 0. 0. 2.77754106e-002 0. 0. 0. 0. 0. 0. 0. 0. 0. 0. 0.
      0. 0. 0. 0. 0. 0. 0. 0. 0. 0. 0. 0. 0. 8.66731815e-003 0. 0. 0. 0.
      0. 0. 0. 0. 0. 0. 0. 0. 0. 0. 0. 0. 0. 0. 0. 0. 0. 0. 0. 0. 0. 0.
      0. 0. 0. 0. 0. 0. 0. 0. 0. 0. 0. 7.65240490e-002 8.99487883e-002
      0. 0. 0. 0. 0. 0. 0. 0. 0. 0. 0. 0. 0. 0. 0. 0. 0. 0. 0. 0. 0. 0.
      0. 0. 0. 0. 0. 0. 0. 0. 0. 0. 3.61654386e-002 0. 0. 0. 0. 0. 0. 0.
      0. 0. 0. 0. 0. 0. 0. 0. 0. 0. 0. 0. 0. 0. 0. 0. 0. 0. 0. 0. 0. 0.
      0. 0. 0. 0. 0. 0. 0. 0. 0. 0. 0. 0. 0. 7.17377812e-002 0. 0.
      6.37108535e-002 0. 0. 0. 0. 0. 0. 0. 0. 5.91491275e-002 0. 0. 0.
      0. 0. 0. 0. 0. 0. 0. 0. 2.51943506e-002 0. 0. 0. 0. 0. 0. 0. 0. 0.
      0. 0. 0. 0. 0. 0. 0. 0. 0. 0. 0. 0. 0. 0. 0. 0. 0. 0. 0. 0. 0. 0.
      0. 0. 0. 0. 0. 0. 0. 0. 0. 0. 0. 0. 0. 0. 0. 0. 0. 0. 0. 0. 0. 0.
      0. 0. 0. 0. 0. 0. 0. 0. 0. 0. 0. 0. 0. 0. 0. 0. 0. 0. 0. 0. 0. 0.
      0. 0. 0. 0. 0. 0. 0. 0. 0. 0. 0. 0. 0. 0. 0. 0. 0. 0. 0. 0. 0. 0.
      0. 0. 4.91192602e-002 6.94859624e-002 0. 0. 0. 0. 0. 0. 0. 0. 0.
      0. 0. 0. 0. 0. 0. 0. 0. 0. 0. 0. 0. 0. 0. 0. 3.66006698e-003 0. 0.
      0. 0. 0. 0. 0. 0. 0. 0. 0. 0. 0. 0. 0. 0. 0. 0. 0. 0. 0. 0. 0. 0.
      0. 0. 0. 0. 0. 0. 0. 0. 0. 1.70215382e-003 0. 0. 0. 0. 0. 0. 0. 0.
      0. 0. 0. 0. 0. 0. 0. 0. 0. 0. 0. 0. 0. 0. 0. 0. 0. 0. 0. 0. 0. 0.
      0. 0. 0. 0. 0. 0. 3.66142094e-002 0. 0. 0. 0. 0. 0. 0. 0. 0. 0.
      7.91125968e-002 0. 0. 0. 0. 0. 2.36300938e-002 0. 0. 0. 0. 0. 0.
      0. 0. 0. 0. 0. 0. 0. 0. 0. 0. 0. 0. 0. 0. 0. 0. 0. 0. 0. 0. 0. 0.
      0. 0. 0. 0. 0. 0. 0. 0. 0. 0. 0. 0. 0. 0. 0. 9.35715213e-002 0. 0.
      0. 0. 0. 4.79154140e-002 0. 0. 0. 0. 0. 0. 0. 0. 0. 0. 0. 0. 0. 0.
      0. 0. 0. 0. 0. 0. 0. 0. 0. 0. 0. 0. 0. 0. 0. 0. 0. 0. 0. 0. 0. 0.
      0. 0. 0. 0. 0. 1.38564691e-001 0. 1.11470655e-001 0. 0. 0. 0. 0.
      0. 0. 0. 0. 0. 0. 0. 0. 0. 0. 0. 0. 0. 0. 0. 0. 0. 0. 0. 0. 0. 0.
      0. 0. 0. 0. 0. 0. 0. 0. 0. 0. 1.10052444e-001 0. 0. 0. 0.
      6.06743023e-002 0. 0. 0. 0. 0. 7.72538856e-002 0. 0. 0. 0. 0. 0.
      0. 0. 0. 0. 0. 0. 0. 0. 0. 0. 0. 0. 0. 0. 0. 0. 0. 0. 0. 0. 0. 0.
      0. 0. 0. 4.21183966e-002 0. 0. 0. 0. 0. 0. 0. 0. 0. 0. 0. 0. 0. 0.
      0. 0. 0. 0. 0. 0. 0. 0. 0. 0. 0. 0. 0. 0. 0. 0. 0. 0. 0. 0. 0. 0.
      0. 0. 0. 0. 0. 0. 0. 0. 0. 0. 0. 0. 0. 0. 0. 0. 0. 0. 0. 0. 0. 0.
      0. 0. 0. 0. 0. 0. 0. 0. 0. 0. 0. 0. 0. 0. 0. 0. 0. 0. 0. 0. 0. 0.
      0. 0. 0. 0. 0. 0. 0. 0. 0. 0. 0. 0. 0. 0. 0. 0. 0. 0. 0. 0. 0. 0.
      0. 0. 0. 0. 0. 0. 0. 0. 0. 0. 0. 0. 0. 0. 0. 0. 0. 0. 0. 0.
      9.29869339e-002 0. 0. 0. 0. 0. 5.83481267e-002 0. 0. 0. 0. 0. 0.
      0. 0. 0. 0. 0. 0. 0. 0. 0. 0. 0. 0. 0. 0. 0. 0. 0. 0. 0. 0. 0. 0.
      0. 1.03293724e-001 0. 0. 0. 0. 0. 0. 0. 0. 0. 0. 0. 0. 0. 0. 0. 0.
      0. 0. 0. 0. 0. 0. 0. 0. 0. 0. 0. 0. 0. 0. 0. 0. 0. 0. 0. 0. 0. 0.
      0. 0. 0. 0. 0. 0. 0. 0. 0. 0. 0. 0. 0. 0. 0. 8.43526497e-002 0. 0.
      0. 0. 1.18456744e-002 0. 0. 0. 0. 0. 0. 0. 0. 0. 0. 0. 0. 0. 0. 0.
      3.55236344e-002 0. 0. 0. 0. 0. 0. 0. 0. 0. 0. 0. 0. 0. 0. 0.
      3.28777358e-002 0. 0. 0. 0. 0. 0. 0. 0. 0. 0. 0. 0. 0. 0. 0.
      3.80179621e-002 0. 0. 0. 0. 0. 0. 0. 0. 0. 0. 0. 0. 0. 0. 0. 0. 0.
      0. 0. 0. 0. 0. 0. 0. 0. 0. 0. 0. 0. 0. 0. 0. 0. 0. 0. 0. 0. 0. 0.
      0. 0. 0. 0. 0. 0. 4.10408042e-002 0. 0. 0. 0. 0. 0. 0. 0. 0. 0. 0.
      0. 0. 0. 0. 0. 0. 0. 0. 0. 0. 0. 0. 0. 0. 0. 0. 0. 0. 0. 0. 0. 0.
      0. 0. 0. 0. 0. 0. 0. 0. 0. 0. 0. 0. 0. 0. 0. 0. 0. 0. 0. 0. 0. 0.
      0. 0. 0. 0. 0. 0. 0. 1.13702126e-001 0. 0. 0. 0. 0. 0. 0. 0. 0. 0.
      0. 0. 0. 0. 0. 0. 0. 0. 0. 0. 0. 0. 0. 0. 2.97242347e-002 0. 0. 0.
      0. 0. 0. 0. 0. 0. 0. 0. 0. 0. 0. 0. 0. 0. 0. 0. 0. 0. 0. 0. 0. 0.
      0. 0. 1.96585096e-002 0. 0. 0. 0. 0. 0. 0. 0. 0. 0.
      2.21518446e-002 0. 0. 0. 0. 0. 0. 0. 0. 0. 0. 0. 0. 0. 0. 0. 0. 0.
      0. 0. 0. 0. 0. 0. 0. 0. 0. 0. 0. 0. 0. 0. 0. 0. 0. 0.
      3.40378247e-002 0. 0. 0. 0. 0. 0. 0. 0. 0. 0. 0. 0. 0. 0. 0. 0. 0.
      0. 0. 0. 0. 0. 0. 0. 0. 0. 0. 0. 0. 0. 0. 0. 0. 0. 0. 0. 0. 0. 0.
      0. 0. 0. 0. 0. 0. 0. 0. 0. 0. 0. 0. 0. 0. 0. 0. 0. 0. 0. 0. 0. 0.
      0. 0. 0. 0. 0. 0. 0. 0. 0. 0. 0. 0. 0. 0. 0. 0. 0. 0. 0. 0. 0. 0.
      0. 0. 0. 0. 0. 4.68082651e-002 0. 0. 0. 0. 0. 0. 0. 0. 0. 0. 0. 0.
      0. 0. 0. 0. 0. 0. 0. 0. 0. 0. 0. 0. 0. 0. 0. 0. 0. 0. 0. 0. 0. 0.
      0. 0. 0. 0. 0. 0. 0. 0. 0.</_>
    <_>
      0. 0. 9.89270806e-002 0. 0. 0. 0. 0. 0. 0. 0. 0. 0. 0.
      2.38531735e-002 0. 0. 0. 0. 2.79581547e-002 4.12342213e-002
      2.38446575e-002 0. 2.66956706e-002 0. 2.68587284e-002 0. 0. 0.
      7.60640427e-002 0. 0. 0. 0. 0. 7.91555569e-002 0. 0. 0. 0. 0. 0.
      0. 6.07334562e-002 1.26406262e-002 6.02232255e-002 1.14086464e-001
      0. 0. 0. 1.47346947e-002 0. 0. 0. 0. 0. 6.32148013e-002 0.
      3.69734243e-002 4.61802483e-002 4.25234735e-002 5.13481125e-002 0.
      0. 0. 6.66300878e-002 0. 0. 3.22038159e-002 0. 3.01517565e-002 0.
      0. 0. 0. 0. 0. 0. 1.64699275e-002 7.15178251e-002 0.
      4.08061184e-002 0. 1.36161670e-001 4.33807485e-002 0. 0. 0. 0. 0.
      8.53536800e-002 3.08156665e-002 0. 0. 0. 0. 0. 0. 0. 0. 0.
      1.75471827e-002 0. 0. 0. 3.37181278e-002 6.11395538e-002 0. 0. 0.
      3.63122523e-002 0. 0. 6.93474412e-002 0. 0. 2.77683809e-002
      6.11360371e-002 3.53282057e-002 0. 5.12359701e-002 0. 0. 0.
      1.48708269e-003 0. 0. 0. 0. 4.30434048e-002 0. 0. 0. 0. 0. 0.
      2.53748912e-002 0. 0. 0. 0. 0. 0. 0. 0. 0. 0. 0. 0. 0. 0.
      4.44388986e-002 0. 0. 0. 4.53994274e-002 0. 0. 2.28832010e-002 0.
      3.13265882e-002 0. 0. 0. 0. 1.04818391e-002 0. 2.06566788e-002 0.
      0. 0. 0. 0. 0. 0. 0. 0. 0. 2.20447462e-002 3.43561545e-002 0.
      8.22722986e-002 3.30356285e-002 0. 0. 6.33279383e-002 0. 0.
      4.90447693e-002 0. 2.18678825e-002 0. 2.41782237e-002
      6.13362975e-002 0. 0. 6.47655949e-002 0. 8.46261904e-002 0.
      6.51194304e-002 0. 0. 0. 0. 2.14187149e-002 0. 0. 9.79950372e-003
      0. 2.23322865e-002 0. 0. 0. 7.86077045e-003 0. 0. 0.
      1.91101246e-002 0. 0. 0. 0. 4.66660567e-004 0. 0. 0.
      3.07447631e-002 5.81291020e-002 0. 7.46422708e-002 0.
      9.55227390e-002 2.39869803e-002 4.21714000e-002 4.57346775e-002 0.
      4.60120663e-002 0. 0. 0. 0. 0. 0. 0. 0. 0. 0. 0. 0. 0. 0. 0.
      4.30516601e-002 0. 0. 0. 0. 5.57622220e-003 0. 0. 3.26262563e-002
      0. 6.32621348e-002 0. 5.71744964e-002 0. 0. 5.79191819e-002 0. 0.
      6.71906099e-002 0. 0. 0. 3.01702861e-002 0. 0. 0. 0. 0.
      4.33522798e-002 9.86861587e-002 2.38609519e-002 0. 0. 0. 0. 0.
      7.85544217e-002 0. 0. 0. 7.56333470e-002 0. 2.57865470e-002 0. 0.
      6.29550144e-002 0. 0. 0. 0. 0. 3.26137245e-002 0. 0. 0. 0.
      7.75065348e-002 0. 5.89461252e-002 5.85634867e-003 0. 0. 0.
      8.37858245e-002 0. 8.89097527e-003 3.75982672e-002 4.10790518e-002
      0. 0. 0. 0. 0. 0. 0. 0. 0. 0. 7.60459853e-003 3.87625992e-002 0.
      0. 0. 0. 4.66800928e-002 0. 2.16920581e-002 0. 3.29455137e-002 0.
      0. 3.27411806e-003 0. 0. 0. 0. 0. 3.34211700e-002 0. 0. 0. 0.
      1.20363347e-001 0. 5.83028072e-004 0. 0. 0. 0. 0. 0. 0. 0.
      3.48454751e-002 0. 0. 0. 0. 6.79180995e-002 0. 0. 0. 0. 0. 0. 0.
      5.93182221e-002 0. 0. 7.00780051e-003 0. 0. 5.94279282e-002
      6.72444031e-002 0. 0. 0. 0. 0. 0. 0. 0. 0. 3.96822905e-003 0. 0.
      1.39225900e-001 0. 0. 0. 0. 7.51761626e-003 0. 0. 0. 0. 0.
      3.68210971e-002 0. 0. 0. 0. 0. 3.63279432e-002 2.55038659e-003 0.
      0. 8.85318369e-002 0. 2.18055826e-002 0. 0. 0. 0. 0.
      7.13555664e-002 2.52714660e-002 0. 6.12672092e-003 0. 0.
      2.12546382e-002 0. 0. 0. 0. 0. 0. 0. 0. 0. 0. 1.03041334e-002 0.
      0. 0. 0. 0. 6.66669151e-003 0. 4.36792597e-002 0. 0. 0.
      1.19661793e-001 0. 6.74621686e-002 0. 0. 0. 0. 0. 2.38614287e-002
      0. 5.82366474e-002 0. 0. 4.35844511e-002 0. 1.19719140e-001
      2.85403244e-002 0. 5.92674091e-002 0. 0. 0. 0. 5.67480884e-002
      5.70606589e-002 0. 0. 0. 7.36810863e-002 6.52336888e-003 0. 0.
      1.04077253e-002 6.21341951e-002 9.82953236e-004 0. 5.25111295e-002
      0. 0. 0. 0. 0. 9.57149416e-002 0. 0. 0. 1.37140751e-002 0.
      3.23140435e-002 0. 0. 0. 0. 0. 0. 0. 0. 0. 0. 0. 6.70926869e-002
      0. 0. 0. 0. 0. 0. 0. 0. 0. 0. 4.66863951e-003 0. 0.
      2.98992116e-002 0. 0. 0. 7.25602955e-002 0. 4.34415080e-002
      7.86109865e-002 0. 0. 0. 0. 6.60666823e-002 5.47021329e-002
      4.00598720e-002 0. 0. 0. 4.14019153e-002 0. 0. 0. 0. 0. 0. 0. 0.
      0. 4.33630571e-002 2.92293206e-002 0. 0. 0. 0. 0. 0. 0.
      6.79199621e-002 5.97610287e-002 6.15201890e-002 0. 2.45058145e-002
      0. 4.34910692e-002 6.66374862e-002 0. 0. 0. 0. 2.04145852e-002
      1.35701373e-002 0. 0. 0. 0. 4.01514918e-002 0. 1.06643075e-002 0.
      0. 1.50961345e-002 0. 0. 0. 0. 0. 0. 3.33159268e-002 0. 0. 0. 0.
      0. 0. 0. 0. 0. 0. 0. 0. 0. 0. 0. 0. 0. 0. 0. 0. 2.39352919e-002
      3.62126939e-002 2.38446575e-002 0. 2.66956706e-002 0.
      2.68587284e-002 0. 0. 0. 7.60640427e-002 0. 0. 0. 0. 0.
      6.47573248e-002 0. 0. 0. 0. 0. 0. 0. 6.07334562e-002 0. 0. 0. 0.
      0. 0. 0. 0. 0. 0. 0. 0. 6.32148013e-002 0. 1.35881286e-002 0.
      4.25234735e-002 0. 0. 0. 0. 6.66300878e-002 0. 0. 3.22038159e-002
      0. 3.01517565e-002 0. 0. 0. 0. 0. 0. 0. 1.64699275e-002
      7.15178251e-002 0. 0. 0. 1.36161670e-001 0. 0. 0. 0. 0. 0. 0. 0.
      0. 0. 0. 0. 0. 0. 0. 0. 0. 1.75471827e-002 0. 0. 0.
      3.37181278e-002 2.85513438e-002 0. 0. 0. 0. 0. 0. 2.87911147e-002
      0. 0. 0. 6.11360371e-002 0. 0. 0. 0. 0. 0. 0. 0. 0. 0. 0.
      7.07066501e-004 0. 0. 0. 0. 0. 0. 0. 0. 0. 0. 0. 0. 0. 0. 0. 0. 0.
      0. 0. 0. 0. 0. 0. 0. 0. 0. 0. 0. 2.28832010e-002 0. 0. 0. 0. 0. 0.
      1.04818391e-002 0. 0. 0. 0. 0. 0. 0. 0. 0. 0. 0. 0. 0. 0. 0.
      5.42310588e-002 0. 0. 0. 3.18841375e-002 0. 0. 0. 0. 0. 0.
      2.41782237e-002 0. 0. 0. 0. 0. 0. 0. 0. 0. 0. 0. 0. 0. 0. 0. 0. 0.
      0. 0. 0. 0. 0. 0. 0. 0. 0. 0. 0. 0. 0. 0. 0. 0. 0. 3.07447631e-002
      5.81291020e-002 0. 0. 0. 9.55227390e-002 0. 4.21714000e-002
      4.57346775e-002 0. 0. 0. 0. 0. 0. 0. 0. 0. 0. 0. 0. 0. 0. 0. 0. 0.
      0. 0. 0. 0. 0. 5.57622220e-003 0. 0. 0. 0. 0. 0. 0. 0. 0. 0. 0. 0.
      0. 0. 0. 0. 0. 0. 0. 0. 0. 0. 0. 0. 2.38609519e-002 0. 0. 0. 0. 0.
      0. 0. 0. 0. 2.38961373e-002 0. 0. 0. 0. 0. 0. 0. 0. 0. 0. 0. 0. 0.
      0. 0. 7.75065348e-002 0. 0. 5.85634867e-003 0. 0. 0. 0. 0.
      8.89097527e-003 3.75982672e-002 4.10790518e-002 0. 0. 0. 0. 0. 0.
      0. 0. 0. 0. 7.60459853e-003 0. 0. 0. 0. 0. 4.66800928e-002 0. 0.
      0. 0. 0. 0. 0. 0. 0. 0. 0. 0. 1.53544946e-002 0. 0. 0. 0. 0. 0.
      5.83028072e-004 0. 0. 0. 0. 0. 0. 0. 0. 0. 0. 0. 0. 0.
      6.79180995e-002 0. 0. 0. 0. 0. 0. 0. 0. 0. 0. 7.00780051e-003 0.
      0. 0. 6.72444031e-002 0. 0. 0. 0. 0. 0. 0. 0. 0. 3.96822905e-003
      0. 0. 0. 0. 0. 0. 0. 7.51761626e-003 0. 0. 0. 0. 0.
      3.68210971e-002 0. 0. 0. 0. 0. 0. 2.55038659e-003 0. 0.
      8.40840787e-002 0. 2.18055826e-002 0. 0. 0. 0. 0. 0. 0. 0. 0. 0.
      0. 0. 0. 0. 0. 0. 0. 0. 0. 0. 0. 0. 0. 0. 0. 0. 0. 0. 0. 0. 0. 0.
      0. 0. 1.19661793e-001 0. 0. 0. 0. 0. 0. 0. 0. 0. 0. 0. 0. 0. 0.
      1.19719140e-001 0. 0. 5.92674091e-002 0. 0. 0. 0. 0. 0. 0. 0. 0.
      7.36810863e-002 0. 0. 0. 0. 0. 0. 0. 5.25111295e-002 0. 0. 0. 0.
      0. 9.57149416e-002 0. 0. 0. 1.37140751e-002 0. 0. 0. 0. 0. 0. 0.
      0. 0. 0. 0. 0. 0. 0. 0. 0. 0. 0. 0. 0. 0. 0. 0. 0. 0. 0. 0.
      2.98992116e-002 0. 0. 0. 5.96874952e-002 0. 0. 0. 0. 0. 0. 0.
      3.54573876e-002 5.47021329e-002 4.00598720e-002 0. 0. 0. 0. 0. 0.
      0. 0. 0. 0. 0. 0. 0. 0. 0. 0. 0. 0. 0. 0. 0. 0. 0. 3.36383730e-002
      0. 0. 0. 0. 4.34910692e-002 0. 0. 0. 0. 0. 0. 1.35701373e-002 0.
      0. 0. 0. 0. 0. 0. 0. 0. 0. 0. 0. 0. 0. 0. 0. 3.33159268e-002 0. 0.
      0. 0. 0. 0. 0. 0. 0. 0. 0. 0. 0. 0. 0. 1.50665110e-002 0. 0. 0. 0.
      2.79581547e-002 4.12342213e-002 0. 0. 0. 0. 0. 0. 0. 0. 0. 0. 0.
      0. 0. 0. 7.91555569e-002 0. 0. 0. 0. 0. 0. 0. 0. 0.
      6.02232255e-002 0. 0. 0. 0. 1.47346947e-002 0. 0. 0. 0. 0. 0. 0.
      0. 0. 0. 0. 0. 0. 0. 0. 0. 0. 0. 0. 0. 0. 0. 0. 0. 0. 0. 0. 0. 0.
      0. 0. 0. 0. 0. 0. 0. 0. 0. 0. 8.53536800e-002 0. 0. 0. 0. 0. 0. 0.
      0. 0. 0. 0. 0. 0. 0. 0. 6.11395538e-002 0. 0. 0. 3.63122523e-002
      0. 0. 6.93474412e-002 0. 0. 0. 0. 0. 0. 5.12359701e-002 0. 0. 0.
      0. 0. 0. 0. 0. 4.30434048e-002 0. 0. 0. 0. 0. 0. 0. 0. 0. 0. 0. 0.
      0. 0. 0. 0. 0. 0. 0. 0. 0. 0. 0. 0. 0. 0. 0. 0. 4.24725516e-003 0.
      3.13265882e-002 0. 0. 0. 0. 0. 0. 2.06566788e-002 0. 0. 0. 0. 0.
      0. 0. 0. 0. 0. 0. 0. 0. 0. 0. 0. 0. 0. 0. 0. 3.51531766e-002 0.
      2.18678825e-002 0. 0. 0. 0. 0. 6.47655949e-002 0. 0. 0.
      6.51194304e-002 0. 0. 0. 0. 0. 0. 0. 0. 0. 0. 0. 0. 0. 0. 0. 0. 0.
      0. 0. 0. 0. 0. 4.66660567e-004 0. 0. 0. 0. 0. 0. 0. 0. 0. 0. 0. 0.
      0. 0. 0. 0. 0. 0. 0. 0. 0. 0. 0. 0. 0. 0. 0. 0. 0. 0. 0. 0. 0. 0.
      0. 0. 0. 0. 0. 0. 0. 0. 0. 0. 0. 0. 0. 0. 0. 0. 0. 1.06974402e-002
      0. 0. 0. 0. 0. 0. 0. 0. 0. 0. 0. 0. 0. 7.85544217e-002 0. 0. 0.
      1.64955314e-002 0. 0. 0. 0. 6.29550144e-002 0. 0. 0. 0. 0. 0. 0.
      0. 0. 0. 6.93759620e-002 0. 5.89461252e-002 0. 0. 0. 0.
      8.37858245e-002 0. 0. 0. 0. 0. 0. 0. 0. 0. 0. 0. 0. 0. 0. 0.
      3.87625992e-002 0. 0. 0. 0. 0. 0. 0. 0. 3.29455137e-002 0. 0. 0.
      0. 0. 0. 0. 0. 0. 0. 0. 0. 0. 0. 0. 0. 0. 0. 0. 0. 0. 0. 0. 0. 0.
      0. 0. 0. 0. 0. 0. 0. 0. 0. 0. 0. 0. 5.93182221e-002 0. 0. 0. 0. 0.
      5.94279282e-002 3.83519791e-002 0. 0. 0. 0. 0. 0. 0. 0. 0. 0. 0.
      0. 0. 0. 0. 0. 0. 0. 0. 0. 0. 0. 0. 0. 0. 0. 0. 0. 0. 0. 0. 0. 0.
      8.85318369e-002 0. 0. 0. 0. 0. 0. 0. 0. 2.52714660e-002 0.
      6.12672092e-003 0. 0. 0. 0. 0. 0. 0. 0. 0. 0. 0. 0. 0.
      1.03041334e-002 0. 0. 0. 0. 0. 0. 0. 0. 0. 0. 0. 0. 0.
      4.81694154e-002 0. 0. 0. 0. 0. 2.38614287e-002 0. 0. 0. 0. 0. 0.
      0. 2.85403244e-002 0. 0. 0. 0. 0. 0. 0. 5.70606589e-002 0. 0. 0.
      0. 0. 0. 0. 0. 6.21341951e-002 9.82953236e-004 0. 0. 0. 0. 0. 0.
      0. 5.76071367e-002 0. 0. 0. 0. 0. 3.23140435e-002 0. 0. 0. 0. 0.
      0. 0. 0. 0. 0. 0. 6.70926869e-002 0. 0. 0. 0. 0. 0. 0. 0. 0. 0.
      4.66863951e-003 0. 0. 0. 0. 0. 0. 0. 0. 0. 0. 0. 0. 0. 0.
      6.60666823e-002 0. 0. 0. 0. 0. 0. 0. 0. 0. 0. 0. 0. 0. 0. 0. 0.
      2.40820944e-002 0. 0. 0. 0. 0. 0. 0. 0. 5.97610287e-002
      6.15201890e-002 0. 2.45058145e-002 0. 0. 0. 0. 0. 0. 0. 0. 0. 0.
      0. 0. 0. 0. 0. 1.06643075e-002 0. 0. 0. 0. 0. 0. 0. 0. 0. 0. 0. 0.
      0. 9.89270806e-002 0. 0. 0. 0. 0. 0. 0. 0. 0. 0. 0. 0. 0. 0. 0. 0.
      0. 0. 0. 0. 0. 0. 0. 0. 0. 0. 0. 0. 0. 0. 0. 0. 0. 0. 0. 0. 0. 0.
      0. 0. 0. 1.26406262e-002 0. 8.84049237e-002 0. 0. 0. 0. 0. 0. 0.
      0. 0. 0. 0. 3.69734243e-002 4.61802483e-002 0. 5.13481125e-002 0.
      0. 0. 0. 0. 0. 0. 0. 0. 0. 0. 0. 0. 0. 0. 0. 0. 0. 0.
      4.08061184e-002 0. 0. 4.33807485e-002 0. 0. 0. 0. 0. 0. 0. 0. 0.
      0. 0. 0. 0. 0. 0. 0. 0. 0. 0. 0. 0. 0. 0. 0. 0. 0. 0. 0. 0. 0. 0.
      2.77683809e-002 0. 3.53282057e-002 0. 0. 0. 0. 0. 0. 0. 0. 0. 0.
      0. 0. 0. 0. 0. 0. 0. 2.53748912e-002 0. 0. 0. 0. 0. 0. 0. 0. 0. 0.
      0. 0. 0. 0. 0. 0. 0. 0. 0. 0. 0. 0. 0. 0. 0. 0. 0. 0. 0. 0. 0. 0.
      0. 0. 0. 0. 0. 0. 0. 0. 0. 2.20447462e-002 3.43561545e-002 0.
      8.22722986e-002 3.30356285e-002 0. 0. 6.33279383e-002 0. 0. 0. 0.
      0. 0. 0. 0. 0. 0. 0. 0. 8.46261904e-002 0. 0. 0. 0. 0. 0. 0. 0. 0.
      9.79950372e-003 0. 0. 0. 0. 0. 7.86077045e-003 0. 0. 0. 0. 0. 0.
      0. 0. 0. 0. 0. 0. 0. 0. 0. 8.45042150e-003 0. 0. 2.39869803e-002
      0. 0. 0. 0. 0. 0. 0. 0. 0. 0. 0. 0. 0. 0. 0. 0. 0. 0. 0.
      4.30516601e-002 0. 0. 0. 0. 0. 0. 0. 3.26262563e-002 0. 0. 0.
      5.71744964e-002 0. 0. 5.79191819e-002 0. 0. 0. 0. 0. 0. 0. 0. 0.
      0. 0. 0. 4.33522798e-002 9.86861587e-002 0. 0. 0. 0. 0. 0. 0. 0.
      0. 0. 0. 0. 2.57865470e-002 0. 0. 0. 0. 0. 0. 0. 0.
      3.26137245e-002 0. 0. 0. 0. 0. 0. 0. 0. 0. 0. 0. 0. 0. 0. 0. 0. 0.
      0. 0. 0. 0. 0. 0. 0. 0. 0. 0. 0. 0. 0. 0. 0. 0. 0. 2.16920581e-002
      0. 0. 0. 0. 3.27411806e-003 0. 0. 0. 0. 0. 3.34211700e-002 0. 0.
      0. 0. 1.20363347e-001 0. 0. 0. 0. 0. 0. 0. 0. 0. 0.
      3.48454751e-002 0. 0. 0. 0. 0. 0. 0. 0. 0. 0. 0. 0.
      1.84505973e-002 0. 0. 0. 0. 0. 0. 0. 0. 0. 0. 0. 0. 0. 0. 0. 0. 0.
      0. 0. 1.39225900e-001 0. 0. 0. 0. 0. 0. 0. 0. 0. 0. 0. 0. 0. 0. 0.
      0. 3.63279432e-002 0. 0. 0. 0. 0. 0. 0. 0. 0. 0. 0. 0. 0. 0. 0. 0.
      0. 2.12546382e-002 0. 0. 0. 0. 0. 0. 0. 0. 0. 0. 0. 0. 0. 0. 0. 0.
      0. 0. 4.36792597e-002 0. 0. 0. 0. 0. 0. 0. 0. 0. 0. 0. 0. 0.
      1.46045128e-003 0. 0. 0. 0. 0. 0. 0. 0. 0. 0. 0. 0.
      5.67480884e-002 0. 0. 0. 0. 1.57552399e-002 6.52336888e-003 0. 0.
      1.04077253e-002 0. 0. 0. 0. 0. 0. 0. 0. 0. 0. 0. 0. 0. 0. 0.
      2.55210400e-002 0. 0. 0. 0. 0. 0. 0. 0. 0. 0. 0. 0. 0. 0. 0. 0. 0.
      0. 0. 0. 0. 0. 0. 0. 0. 0. 0. 0. 0. 7.25602955e-002 0.
      4.34415080e-002 6.07117042e-002 0. 0. 0. 0. 0. 0. 0. 0. 0. 0.
      2.11281925e-002 0. 0. 0. 0. 0. 0. 0. 0. 0. 0. 1.79907456e-002 0.
      0. 0. 0. 0. 0. 0. 3.73300575e-002 0. 0. 0. 0. 0. 0.
      6.66374862e-002 0. 0. 0. 0. 0. 0. 0. 0. 0. 0. 2.64419001e-002 0.
      0. 0. 0. 1.50961345e-002 0. 0. 0. 0. 0. 0. 0. 0. 0. 0. 0. 0. 0. 0.
      0. 0. 0. 0. 0. 0. 0. 0. 2.38531735e-002 0. 0. 0. 0. 0. 0. 0. 0. 0.
      0. 0. 0. 0. 0. 0. 0. 0. 0. 0. 0. 0. 0. 0. 0. 0. 0. 0. 0. 0. 0. 0.
      1.14086464e-001 0. 0. 0. 0. 0. 0. 0. 0. 0. 0. 0. 0. 0. 0.
      1.48779387e-002 0. 0. 0. 0. 0. 0. 0. 0. 0. 0. 0. 0. 0. 0. 0. 0. 0.
      0. 0. 0. 0. 0. 0. 0. 0. 0. 0. 0. 0. 3.08156665e-002 0. 0. 0. 0. 0.
      0. 0. 0. 0. 0. 0. 0. 0. 0. 0. 0. 0. 0. 0. 0. 0. 0. 0. 0. 0. 0. 0.
      0. 0. 0. 0. 0. 1.48708269e-003 0. 0. 0. 0. 0. 0. 0. 0. 0. 0. 0. 0.
      0. 0. 0. 0. 0. 0. 0. 0. 0. 0. 0. 0. 0. 0. 4.44388986e-002 0. 0. 0.
      4.53994274e-002 0. 0. 0. 0. 0. 0. 0. 0. 0. 0. 0. 0. 0. 0. 0. 0. 0.
      0. 0. 0. 0. 0. 0. 0. 0. 0. 3.10275536e-002 0. 0. 0. 0. 0.
      4.90447693e-002 0. 0. 0. 0. 6.13362975e-002 0. 0. 0. 0. 0. 0. 0.
      0. 0. 0. 0. 2.14187149e-002 0. 0. 0. 0. 2.23322865e-002 0. 0. 0.
      0. 0. 0. 0. 1.91101246e-002 0. 0. 0. 0. 0. 0. 0. 0. 0. 0. 0.
      7.46422708e-002 0. 0. 2.16510352e-002 0. 0. 0. 4.60120663e-002 0.
      0. 0. 0. 0. 0. 0. 0. 0. 0. 0. 0. 0. 0. 0. 0. 0. 0. 0. 0. 0. 0. 0.
      0. 0. 6.32621348e-002 0. 0. 0. 0. 0. 0. 0. 6.71906099e-002 0. 0.
      0. 3.01702861e-002 0. 0. 0. 0. 0. 0. 8.48149434e-002 0. 0. 0. 0.
      0. 0. 0. 0. 0. 0. 7.56333470e-002 0. 0. 0. 0. 0. 0. 0. 0. 0. 0.
      2.56207325e-002 0. 0. 0. 0. 0. 0. 0. 0. 0. 0. 0. 0. 0. 0. 0. 0. 0.
      0. 0. 0. 0. 0. 0. 0. 0. 0. 0. 0. 0. 0. 0. 0. 0. 0. 1.77881271e-002
      0. 0. 0. 0. 0. 0. 0. 0. 0. 0. 0. 0. 0. 0. 0. 0. 0. 0. 0. 0. 0. 0.
      0. 0. 0. 0. 0. 0. 0. 0. 0. 0. 0. 0. 0. 0. 0. 0. 0. 0. 0. 0. 0. 0.
      0. 0. 3.97161394e-002 0. 0. 0. 0. 0. 0. 0. 0. 0. 0. 0. 0. 0. 0. 0.
      0. 0. 0. 0. 0. 0. 0. 0. 0. 0. 0. 0. 0. 0. 2.59044282e-002 0. 0. 0.
      0. 0. 0. 0. 0. 0. 0. 0. 7.13555664e-002 0. 0. 3.22114024e-003 0.
      0. 0. 0. 0. 0. 0. 0. 0. 0. 0. 0. 0. 0. 0. 0. 0. 0. 0.
      6.66669151e-003 0. 0. 0. 0. 0. 0. 0. 6.74621686e-002 0. 0. 0. 0.
      0. 0. 0. 5.82366474e-002 0. 0. 4.35844511e-002 0. 0. 0. 0. 0. 0.
      0. 0. 0. 0. 0. 0. 0. 0. 0. 0. 0. 0. 0. 0. 0. 0. 0. 0. 0. 0. 0. 0.
      0. 0. 0. 0. 0. 0. 0. 0. 0. 0. 0. 0. 0. 0. 0. 0. 0. 0. 0. 0. 0. 0.
      0. 0. 0. 0. 0. 0. 0. 0. 0. 0. 0. 0. 0. 0. 0. 0. 0. 7.86109865e-002
      0. 0. 0. 0. 0. 0. 0. 0. 0. 0. 4.14019153e-002 0. 0. 0. 0. 0. 0. 0.
      0. 0. 4.33630571e-002 2.92293206e-002 0. 0. 0. 0. 0. 0. 0.
      6.79199621e-002 0. 0. 0. 0. 0. 0. 0. 0. 0. 0. 0. 2.04145852e-002
      0. 0. 0. 0. 0. 4.01514918e-002 0. 0. 0. 0. 0. 0. 0. 0. 0. 0. 0. 0.
      0.</_>
    <_>
      3.04504186e-002 0. 0. 0. 1.20113064e-002 0. 0. 0. 0. 0.
      4.34589311e-002 0. 0. 0. 4.47532050e-002 0. 3.30614895e-002 0. 0.
      0. 0. 0. 0. 5.04895858e-002 0. 2.85616331e-002 0. 0. 0. 0.
      5.10910042e-002 0. 4.54425327e-002 0. 0. 0. 0. 0. 0.
      9.57172457e-003 0. 4.81978804e-002 0. 0. 4.18026261e-002
      5.82078705e-003 3.47654559e-002 0. 0. 0. 4.20798771e-002 0. 0. 0.
      0. 1.96601320e-002 0. 0. 2.30991244e-002 3.88134061e-003 0.
      6.77872151e-002 0. 0. 0. 1.21017583e-001 8.76754057e-003
      5.80619201e-002 0. 4.05145362e-002 0. 0. 7.71239027e-003 0. 0. 0.
      0. 0. 0. 7.00253546e-002 0. 0. 0. 1.40310481e-001 0. 0. 0.
      1.40007376e-003 0. 0. 2.26568524e-002 0. 0. 0. 0. 0. 0. 0. 0. 0.
      0. 2.40514074e-002 0. 0. 0. 6.02705888e-002 0. 0. 0. 0.
      3.59026045e-002 0. 0. 7.15803578e-002 0. 0. 0. 2.68294699e-002 0.
      0. 0. 0. 0. 0. 0. 0. 1.92773044e-002 4.69308533e-002
      3.65881547e-002 1.78945828e-002 0. 0. 0. 0. 6.86164573e-002 0. 0.
      0. 3.42201628e-002 7.58764893e-002 7.41488561e-002 0.
      1.10967997e-002 0. 0. 0. 0. 0. 3.86495725e-003 0. 0. 0. 0.
      3.13144661e-002 0. 2.24406179e-002 0. 0. 0. 0. 0. 0. 0. 0. 0.
      2.89142635e-002 0. 0. 0. 0. 0. 4.07243408e-002 0. 0. 0. 0. 0. 0.
      3.27378623e-002 2.86788195e-002 0. 0. 1.47149740e-002 0. 0.
      1.50839733e-002 0. 0. 0. 0. 4.77075204e-002 0. 2.47057043e-002
      5.84457964e-002 3.48814093e-002 0. 2.43268292e-002 0.
      2.92749647e-002 3.56690697e-002 0. 0. 4.18845825e-002
      2.50995858e-003 0. 4.52769361e-003 1.59205794e-001 0.
      1.86162740e-002 1.98478922e-002 6.73357174e-002 0. 0. 0. 0. 0.
      2.08141096e-002 0. 0. 0. 3.61788459e-002 0. 0. 4.19007950e-002
      3.89139280e-002 0. 0. 4.53941040e-002 0. 0. 7.05784708e-002 0.
      1.21252961e-001 4.78860363e-003 7.78403599e-003 2.68980209e-002 0.
      5.94754368e-002 0. 0. 0. 0. 0. 0. 0. 0. 4.26597595e-002 0. 0.
      3.22032012e-002 0. 0. 3.17152739e-002 0. 0. 0. 0. 1.40619380e-002
      0. 0. 0. 0. 0. 0. 0. 0. 4.97295111e-002 0. 0. 1.40986955e-002 0.
      0. 0. 0. 0. 4.54896912e-002 0. 0. 6.23331591e-003 0. 0.
      1.86966807e-002 2.56334580e-002 0. 0. 3.87412719e-002
      1.80745106e-002 0. 0. 0. 0. 0. 2.09010113e-002 4.49799411e-002
      3.37799489e-002 0. 0. 0. 1.45723149e-002 5.54514229e-002 0.
      1.15952320e-001 0. 0. 2.20705569e-002 0. 0. 0. 0. 2.97062490e-002
      0. 0. 6.56193495e-002 0. 0. 0. 0. 0. 0. 2.46979240e-002
      3.92692089e-002 0. 0. 2.44278274e-002 0. 0. 0. 2.30660880e-004 0.
      3.16407941e-002 0. 6.17025085e-002 3.02485470e-003 0. 0. 0. 0.
      1.79120321e-002 0. 7.03137964e-002 0. 1.35576178e-003
      1.02419272e-001 4.19152044e-002 0. 7.01510385e-002 0. 0. 0. 0.
      2.18160488e-002 0. 0. 0. 0. 0. 0. 3.22467461e-002 0. 0.
      1.74457412e-002 0. 0. 0. 0. 0. 0. 0. 0. 0. 9.03691351e-002 0. 0.
      0. 0. 0. 0. 2.88547967e-002 0. 0. 0. 0. 0. 0. 0. 0. 0.
      3.05561163e-002 0. 0. 0. 0. 8.93857926e-002 0. 0. 0. 0. 0. 0.
      9.32651013e-002 0. 0. 1.06947580e-002 0. 5.78162745e-002 0.
      3.78359742e-002 0. 0. 0. 1.62815806e-002 0. 0. 3.37831005e-002 0.
      0. 2.11220291e-002 5.25336303e-002 4.74807173e-002 4.93160672e-002
      0. 2.34321225e-002 3.22143957e-002 0. 0. 0. 0. 0. 0.
      5.85177615e-002 0. 3.29095870e-002 0. 0. 0. 0. 0. 0.
      1.92977730e-002 0. 0. 0. 0. 3.98427597e-004 0. 1.83851514e-002
      9.67383198e-003 4.19127643e-002 0. 0. 0. 1.49197420e-002 0.
      7.07675740e-002 0. 0. 0. 5.40712029e-002 0. 3.10305841e-002 0. 0.
      0. 0. 0. 0. 0. 6.55149221e-002 9.12683457e-002 0. 5.95143102e-002
      0. 8.72082487e-002 0. 0. 4.85815480e-002 0. 0. 1.39520662e-002 0.
      5.68842106e-002 1.73752327e-002 8.54627788e-003 0. 4.48516607e-002
      8.07897672e-002 0. 0. 0. 1.07544614e-002 4.36808281e-002 0. 0.
      8.68066624e-002 0. 0. 0. 0. 0. 0. 8.63167942e-002 0. 0. 0. 0.
      5.13858721e-002 0. 3.85252610e-002 0. 2.07430851e-002 0.
      1.99855957e-002 2.27242615e-002 0. 3.47190164e-002 0. 0. 0. 0.
      1.95535924e-002 0. 2.99036447e-002 0. 0. 0. 0. 1.71571840e-002 0.
      2.29306836e-002 0. 0. 0. 0. 0. 0. 6.40340000e-002 0. 0. 0. 0. 0.
      0. 0. 1.13812033e-002 0. 1.35997489e-001 0. 6.77557290e-002
      4.86445464e-002 2.40176637e-002 0. 0. 0. 0. 0. 4.13047485e-002
      1.16403475e-001 0. 0. 3.50302123e-002 1.38580397e-001 0. 0. 0. 0.
      0. 0. 0. 4.60197702e-002 1.92317348e-002 0. 0. 1.39207635e-002 0.
      3.00500542e-002 2.38768272e-002 4.02328670e-002 0. 0. 0.
      8.42245389e-003 0. 0. 0. 0. 0. 4.89506759e-002 0. 1.60271034e-001
      2.60059163e-002 0. 1.09870359e-002 7.68071786e-003 0. 0. 0. 0. 0.
      3.28728743e-002 0. 0. 0. 0. 0. 1.20113064e-002 0. 0. 0. 0. 0. 0.
      0. 0. 0. 0. 0. 0. 0. 0. 0. 0. 0. 0. 5.04895858e-002 0.
      2.85616331e-002 0. 0. 0. 0. 0. 0. 0. 0. 0. 0. 0. 0. 0. 0. 0.
      4.81978804e-002 0. 0. 0. 0. 0. 0. 0. 0. 0. 0. 0. 0. 0. 0. 0. 0. 0.
      0. 0. 0. 0. 0. 0. 1.21017583e-001 8.76754057e-003 5.80619201e-002
      0. 0. 0. 0. 0. 0. 0. 0. 0. 0. 0. 7.00253546e-002 0. 0. 0.
      1.40310481e-001 0. 0. 0. 0. 0. 0. 0. 0. 0. 0. 0. 0. 0. 0. 0. 0. 0.
      2.40514074e-002 0. 0. 0. 6.02705888e-002 0. 0. 0. 0. 0. 0. 0. 0.
      0. 0. 0. 2.68294699e-002 0. 0. 0. 0. 0. 0. 0. 0. 0. 0. 0.
      1.78945828e-002 0. 0. 0. 0. 0. 0. 0. 0. 3.42201628e-002 0.
      7.41488561e-002 0. 1.10967997e-002 0. 0. 0. 0. 0. 0. 0. 0. 0. 0.
      0. 0. 0. 0. 0. 0. 0. 0. 0. 0. 0. 0. 2.89142635e-002 0. 0. 0. 0. 0.
      0. 0. 0. 0. 0. 0. 0. 0. 0. 0. 0. 0. 0. 0. 1.50839733e-002 0. 0. 0.
      0. 0. 0. 2.47057043e-002 0. 0. 0. 0. 0. 0. 0. 0. 0. 0. 0. 0. 0. 0.
      0. 0. 0. 0. 0. 0. 0. 0. 0. 0. 0. 0. 0. 0. 0. 0. 4.19007950e-002 0.
      0. 0. 4.53941040e-002 0. 0. 0. 0. 1.14414580e-001 0.
      9.84077109e-004 2.68980209e-002 0. 0. 0. 0. 0. 0. 0. 0. 0. 0. 0.
      0. 0. 3.22032012e-002 0. 0. 0. 0. 0. 0. 0. 0. 0. 0. 0. 0. 0. 0. 0.
      0. 0. 0. 0. 0. 0. 0. 0. 0. 0. 0. 0. 0. 0. 0. 0. 0. 0. 0. 0. 0.
      1.80745106e-002 0. 0. 0. 0. 0. 0. 0. 0. 0. 0. 0. 0. 0. 0. 0. 0. 0.
      0. 0. 0. 0. 0. 2.97062490e-002 0. 0. 6.56193495e-002 0. 0. 0. 0.
      0. 0. 2.46979240e-002 3.92692089e-002 0. 0. 0. 0. 0. 0. 0. 0.
      7.48878159e-003 0. 6.17025085e-002 0. 0. 0. 0. 0. 0. 0. 0. 0. 0.
      0. 0. 0. 0. 0. 0. 0. 0. 2.18160488e-002 0. 0. 0. 0. 0. 0. 0. 0. 0.
      0. 0. 0. 0. 0. 0. 0. 0. 0. 0. 0. 0. 0. 0. 0. 0. 0. 2.88547967e-002
      0. 0. 0. 0. 0. 0. 0. 0. 0. 0. 0. 0. 0. 0. 0. 0. 0. 0. 0. 0. 0. 0.
      0. 0. 0. 0. 5.78162745e-002 0. 0. 0. 0. 0. 1.62815806e-002 0. 0.
      0. 0. 0. 0. 5.25336303e-002 4.74807173e-002 0. 0. 0.
      3.22143957e-002 0. 0. 0. 0. 0. 0. 0. 0. 0. 0. 0. 0. 0. 0. 0.
      1.92977730e-002 0. 0. 0. 0. 0. 0. 0. 0. 0. 0. 0. 0.
      1.49197420e-002 0. 0. 0. 0. 0. 5.40712029e-002 0. 3.10305841e-002
      0. 0. 0. 0. 0. 0. 0. 0. 0. 0. 0. 0. 8.72082487e-002 0. 0.
      4.85815480e-002 0. 0. 1.39520662e-002 0. 0. 0. 0. 0. 0.
      8.07897672e-002 0. 0. 0. 0. 0. 0. 0. 8.68066624e-002 0. 0. 0. 0.
      0. 0. 2.28689592e-002 0. 0. 0. 0. 0. 0. 3.85252610e-002 0.
      2.07430851e-002 0. 0. 2.27242615e-002 0. 0. 0. 0. 0. 0. 0. 0. 0.
      0. 0. 0. 0. 1.71571840e-002 0. 0. 0. 0. 0. 0. 0. 0.
      6.40340000e-002 0. 0. 0. 0. 0. 0. 0. 1.13812033e-002 0.
      1.35997489e-001 0. 0. 0. 0. 0. 0. 0. 0. 0. 0. 0. 0. 0. 0. 0. 0. 0.
      0. 0. 0. 0. 0. 0. 1.92317348e-002 0. 0. 0. 0. 3.00500542e-002 0.
      0. 0. 0. 0. 0. 0. 0. 0. 0. 0. 0. 0. 0. 0. 0. 0. 7.68071786e-003 0.
      0. 0. 0. 0. 0. 0. 0. 0. 0. 0. 0. 0. 0. 0. 0. 0. 4.34589311e-002 0.
      0. 0. 1.72939878e-002 0. 3.30614895e-002 0. 0. 0. 0. 0. 0. 0. 0.
      0. 0. 0. 0. 0. 0. 0. 4.54425327e-002 0. 0. 0. 0. 0. 0. 0. 0. 0. 0.
      0. 2.07327809e-002 5.82078705e-003 0. 0. 0. 0. 4.20798771e-002 0.
      0. 0. 0. 1.96601320e-002 0. 0. 0. 0. 0. 0. 0. 0. 0. 0. 0. 0. 0.
      4.05145362e-002 0. 0. 7.71239027e-003 0. 0. 0. 0. 0. 0. 0. 0. 0.
      0. 0. 0. 0. 0. 1.40007376e-003 0. 0. 0. 0. 0. 0. 0. 0. 0. 0. 0. 0.
      0. 0. 0. 0. 0. 0. 0. 0. 0. 0. 0. 0. 0. 7.15803578e-002 0. 0. 0.
      1.57151669e-002 0. 0. 0. 0. 0. 0. 0. 0. 1.92773044e-002 0.
      3.65881547e-002 0. 0. 0. 0. 0. 6.86164573e-002 0. 0. 0. 0. 0.
      2.97733769e-002 0. 0. 0. 0. 0. 0. 0. 0. 0. 0. 0. 0.
      3.13144661e-002 0. 0. 0. 0. 0. 0. 0. 0. 0. 0. 0. 0. 0. 0. 0. 0. 0.
      4.07243408e-002 0. 0. 0. 0. 0. 0. 3.27378623e-002 0. 0. 0. 0. 0.
      0. 0. 0. 0. 0. 0. 6.20260648e-003 0. 0. 0. 3.48814093e-002 0.
      2.43268292e-002 0. 0. 0. 0. 0. 4.18845825e-002 0. 0. 0. 0. 0. 0.
      1.98478922e-002 5.87835908e-003 0. 0. 0. 0. 0. 0. 0. 0. 0.
      3.61788459e-002 0. 0. 0. 0. 0. 0. 0. 0. 0. 0. 0. 1.21252961e-001
      0. 7.78403599e-003 0. 0. 0. 0. 0. 0. 0. 0. 0. 0. 0.
      4.26597595e-002 0. 0. 0. 0. 0. 3.17152739e-002 0. 0. 0. 0.
      1.25245145e-002 0. 0. 0. 0. 0. 0. 0. 0. 2.24294923e-002 0. 0. 0.
      0. 0. 0. 0. 0. 4.54896912e-002 0. 0. 6.23331591e-003 0. 0. 0. 0.
      0. 0. 3.87412719e-002 0. 0. 0. 0. 0. 0. 0. 4.49799411e-002
      3.37799489e-002 0. 0. 0. 0. 5.54514229e-002 0. 0. 0. 0. 0. 0. 0.
      0. 0. 0. 0. 0. 0. 0. 0. 0. 0. 0. 0. 0. 0. 0. 0. 0. 0. 0. 0. 0. 0.
      0. 0. 0. 0. 0. 0. 0. 0. 1.79120321e-002 0. 0. 0. 0. 0.
      4.19152044e-002 0. 0. 0. 0. 0. 0. 0. 0. 0. 0. 0. 0. 0.
      3.22467461e-002 0. 0. 1.74457412e-002 0. 0. 0. 0. 0. 0. 0. 0. 0.
      0. 0. 0. 0. 0. 0. 0. 0. 0. 0. 0. 0. 0. 0. 0. 0. 0. 0. 0. 0. 0. 0.
      3.51415165e-002 0. 0. 0. 0. 0. 0. 0. 0. 0. 1.06947580e-002 0.
      2.95951758e-002 0. 3.78359742e-002 0. 0. 0. 0. 0. 0. 0. 0. 0. 0.
      0. 4.64720372e-003 4.93160672e-002 0. 0. 1.39582166e-002 0. 0. 0.
      0. 0. 0. 0. 0. 0. 0. 0. 0. 0. 0. 0. 0. 0. 0. 0. 0. 3.98427597e-004
      0. 1.83851514e-002 9.67383198e-003 4.19127643e-002 0. 0. 0. 0. 0.
      0. 0. 0. 0. 0. 0. 0. 0. 0. 0. 0. 0. 0. 0. 0. 9.12683457e-002 0. 0.
      0. 0. 0. 0. 0. 0. 0. 0. 0. 0. 0. 8.54627788e-003 0. 0. 0. 0. 0. 0.
      0. 4.36808281e-002 0. 0. 4.28264663e-002 0. 0. 0. 0. 0. 0.
      8.63167942e-002 0. 0. 0. 0. 5.13858721e-002 0. 0. 0. 0. 0. 0. 0.
      0. 3.47190164e-002 0. 0. 0. 0. 0. 0. 2.99036447e-002 0. 0. 0. 0.
      0. 0. 0. 0. 0. 0. 0. 0. 0. 0. 0. 0. 0. 0. 0. 0. 0. 0. 0. 0. 0.
      6.77557290e-002 4.86445464e-002 0. 0. 0. 0. 0. 0. 4.13047485e-002
      0. 0. 0. 3.50302123e-002 0. 0. 0. 0. 0. 0. 0. 0. 0. 0. 0. 0. 0. 0.
      0. 0. 0. 0. 0. 0. 8.42245389e-003 0. 0. 0. 0. 0. 0. 0. 0. 0. 0.
      1.09870359e-002 0. 0. 0. 0. 0. 0. 3.28728743e-002 0. 0. 0. 0. 0.
      0. 0. 0. 0. 0. 0. 0. 0. 0. 0. 4.47532050e-002 0. 0. 0. 0. 0. 0. 0.
      0. 0. 0. 0. 0. 0. 0. 0. 0. 0. 0. 0. 0. 0. 0. 0. 0. 9.57172457e-003
      0. 3.82074527e-002 0. 0. 4.18026261e-002 0. 3.47654559e-002 0. 0.
      0. 0. 0. 0. 0. 0. 0. 0. 0. 2.30991244e-002 0. 0. 0. 0. 0. 0. 0. 0.
      0. 0. 0. 0. 0. 0. 0. 0. 0. 0. 0. 0. 0. 0. 0. 0. 0. 0. 0. 0. 0. 0.
      0. 2.26568524e-002 0. 0. 0. 0. 0. 0. 0. 0. 0. 0. 8.58961896e-004
      0. 0. 0. 0. 0. 0. 0. 0. 3.59026045e-002 0. 0. 0. 0. 0. 0. 0. 0. 0.
      0. 0. 0. 0. 0. 0. 0. 0. 0. 0. 0. 0. 0. 0. 0. 0. 0. 0. 0.
      7.58764893e-002 0. 0. 0. 0. 0. 0. 0. 0. 3.86495725e-003 0. 0. 0.
      0. 0. 0. 2.24406179e-002 0. 0. 0. 0. 0. 0. 0. 0. 0. 0. 0. 0. 0. 0.
      0. 0. 0. 0. 0. 0. 0. 0. 0. 2.86788195e-002 0. 0. 1.47149740e-002
      0. 0. 0. 0. 0. 0. 0. 4.77075204e-002 0. 0. 0. 0. 0. 0. 0.
      2.92749647e-002 0. 0. 0. 0. 2.50995858e-003 0. 0. 1.59205794e-001
      0. 1.86162740e-002 0. 0. 0. 0. 0. 0. 0. 0. 0. 0. 0. 0. 0. 0. 0. 0.
      0. 0. 0. 0. 0. 5.15448116e-002 0. 0. 0. 0. 0. 0. 5.94754368e-002
      0. 0. 0. 0. 0. 0. 0. 0. 0. 0. 0. 0. 0. 0. 0. 0. 0. 0. 0.
      1.40619380e-002 0. 0. 0. 0. 0. 0. 0. 0. 0. 0. 0. 1.40986955e-002
      0. 0. 0. 0. 0. 0. 0. 0. 0. 0. 0. 1.86966807e-002 2.56334580e-002
      0. 0. 0. 0. 0. 0. 0. 0. 0. 0. 0. 0. 0. 0. 0. 1.45723149e-002 0. 0.
      0. 0. 0. 2.20705569e-002 0. 0. 0. 0. 0. 0. 0. 0. 0. 0. 0. 0. 0. 0.
      0. 0. 0. 0. 2.44278274e-002 0. 0. 0. 2.30660880e-004 0.
      3.16407941e-002 0. 0. 3.02485470e-003 0. 0. 0. 0. 0. 0.
      7.03137964e-002 0. 0. 0. 0. 0. 7.01510385e-002 0. 0. 0. 0. 0. 0.
      0. 0. 0. 0. 0. 0. 0. 0. 0. 0. 0. 0. 0. 0. 0. 0. 0. 0. 0. 0. 0. 0.
      0. 0. 0. 0. 0. 0. 0. 0. 0. 0. 0. 0. 0. 3.05561163e-002 0. 0. 0. 0.
      0. 0. 0. 0. 0. 0. 0. 9.32651013e-002 0. 0. 0. 0. 0. 0. 0. 0. 0. 0.
      0. 0. 0. 0. 0. 0. 2.11220291e-002 0. 0. 0. 0. 2.34321225e-002 0.
      0. 0. 0. 0. 0. 0. 0. 0. 0. 0. 0. 0. 0. 0. 0. 0. 0. 0. 0. 0. 0. 0.
      0. 0. 0. 0. 0. 0. 0. 0. 7.07675740e-002 0. 0. 0. 3.87168378e-002
      0. 2.02848073e-002 0. 0. 0. 0. 0. 0. 0. 6.55149221e-002 0. 0.
      8.03566445e-003 0. 0. 0. 0. 0. 0. 0. 0. 0. 5.68842106e-002
      1.73752327e-002 0. 0. 4.48516607e-002 0. 0. 0. 0. 1.07544614e-002
      0. 0. 0. 0. 0. 0. 0. 0. 0. 0. 0. 0. 0. 0. 0. 0. 0. 0. 0. 0. 0.
      1.99855957e-002 0. 0. 0. 0. 0. 0. 0. 0. 0. 0. 0. 0. 0. 0. 0. 0.
      2.29306836e-002 0. 0. 0. 0. 0. 0. 0. 0. 0. 0. 0. 0. 0. 0. 0. 0. 0.
      0. 0. 0. 2.40176637e-002 0. 0. 0. 0. 0. 0. 0. 0. 0. 0.
      1.05561458e-001 0. 0. 0. 0. 0. 0. 0. 4.60197702e-002 0. 0. 0.
      1.39207635e-002 0. 0. 2.38768272e-002 0. 0. 0. 0. 0. 0. 0. 0. 0.
      0. 4.89506759e-002 0. 1.60271034e-001 2.60059163e-002 0. 0. 0. 0.
      0. 0. 0. 0. 0. 0. 3.04504186e-002 0. 0. 0. 0. 0. 0. 0. 0. 0. 0. 0.
      0. 0. 0. 0. 0. 0. 0. 0. 0. 0. 0. 0. 0. 0. 0. 0. 0. 0.
      5.10910042e-002 0. 0. 0. 0. 0. 0. 0. 0. 0. 0. 0. 0. 0. 0. 0. 0. 0.
      0. 0. 0. 0. 0. 0. 0. 0. 0. 0. 0. 3.88134061e-003 0.
      6.77872151e-002 0. 0. 0. 0. 0. 0. 0. 0. 0. 0. 0. 0. 0. 0. 0. 0. 0.
      0. 0. 0. 0. 0. 0. 0. 0. 0. 0. 0. 0. 0. 0. 0. 0. 0. 0. 0. 0. 0. 0.
      0. 0. 0. 0. 0. 0. 0. 0. 0. 0. 0. 0. 0. 0. 0. 0. 0. 0. 0. 0. 0. 0.
      0. 0. 0. 0. 4.69308533e-002 0. 0. 0. 0. 0. 0. 0. 0. 0. 0. 0. 0. 0.
      0. 0. 0. 0. 0. 0. 0. 0. 0. 0. 0. 0. 0. 0. 0. 0. 0. 0. 0. 0. 0. 0.
      0. 0. 0. 0. 0. 0. 0. 0. 0. 0. 0. 0. 0. 0. 0. 0. 0. 0. 0. 0. 0. 0.
      0. 0. 0. 0. 0. 0. 0. 0. 5.84457964e-002 0. 0. 0. 0.
      1.70261562e-002 3.56690697e-002 0. 0. 0. 0. 0. 4.52769361e-003 0.
      0. 0. 0. 6.73357174e-002 0. 0. 0. 0. 0. 2.08141096e-002 0. 0. 0.
      0. 0. 0. 0. 3.89139280e-002 0. 0. 0. 0. 0. 7.05784708e-002 0. 0.
      4.78860363e-003 0. 0. 0. 0. 0. 0. 0. 0. 0. 0. 0. 0. 0. 0. 0. 0. 0.
      0. 0. 0. 0. 0. 0. 0. 0. 0. 0. 0. 0. 0. 0. 0. 4.97295111e-002 0. 0.
      0. 0. 0. 0. 0. 0. 0. 0. 0. 0. 0. 0. 0. 0. 0. 0. 0. 0. 0. 0. 0. 0.
      0. 2.09010113e-002 0. 0. 0. 0. 0. 2.82916380e-003 0. 0.
      1.15952320e-001 0. 0. 1.11952994e-003 0. 0. 0. 0. 0. 0. 0. 0. 0.
      0. 0. 0. 0. 0. 0. 0. 0. 0. 0. 0. 0. 0. 0. 0. 0. 0. 0. 0. 0. 0. 0.
      0. 0. 0. 0. 0. 1.35576178e-003 1.02419272e-001 0. 0. 0. 0. 0. 0.
      0. 0. 0. 0. 0. 0. 0. 0. 0. 0. 0. 0. 0. 0. 0. 0. 0. 0. 0. 0. 0.
      9.03691351e-002 0. 0. 0. 0. 0. 0. 0. 0. 0. 0. 0. 0. 0. 0. 0. 0. 0.
      0. 0. 0. 0. 8.93857926e-002 0. 0. 0. 0. 0. 0. 0. 0. 0. 0. 0. 0. 0.
      0. 0. 0. 0. 0. 0. 0. 3.37831005e-002 0. 0. 0. 0. 0. 0. 0. 0. 0. 0.
      0. 0. 0. 0. 0. 5.85177615e-002 0. 3.29095870e-002 0. 0. 0. 0. 0.
      0. 0. 0. 0. 0. 0. 0. 0. 0. 0. 0. 0. 0. 0. 0. 0. 0. 0. 0. 0. 0. 0.
      0. 0. 0. 0. 0. 0. 0. 0. 2.99573950e-002 0. 0. 5.95143102e-002 0.
      0. 0. 0. 0. 0. 0. 0. 0. 0. 0. 0. 0. 0. 0. 0. 0. 0. 0. 0. 0. 0. 0.
      0. 0. 0. 0. 0. 0. 0. 0. 0. 0. 0. 0. 0. 0. 0. 0. 0. 0. 0. 0. 0. 0.
      0. 0. 0. 1.95535924e-002 0. 0. 0. 0. 0. 0. 0. 0. 0. 0. 0. 0. 0. 0.
      0. 0. 0. 0. 0. 0. 0. 0. 0. 0. 0. 0. 0. 5.56318760e-002 0. 0. 0. 0.
      0. 0. 0. 0. 1.16403475e-001 0. 0. 0. 1.38580397e-001 0. 0. 0. 0.
      0. 0. 0. 2.27850322e-002 0. 0. 0. 0. 0. 0. 0. 4.02328670e-002 0.
      0. 0. 0. 0. 0. 0. 0. 0. 0. 0. 0. 0. 0. 0. 0. 0. 0. 0. 0. 0. 0. 0.</_>
    <_>
      0. 0. 1.14822313e-002 0. 2.60865875e-002 0. 0. 2.62125675e-002 0.
      0. 0. 3.44188735e-002 4.52819318e-002 0. 1.68869272e-002 0.
      2.87674721e-002 6.39509782e-002 0. 0. 0. 5.85371256e-002 0.
      2.66989134e-002 2.04655211e-002 2.77312268e-002 0. 3.27803902e-002
      1.63399596e-002 0. 8.71312711e-003 4.26728204e-002 0. 0. 0. 0. 0.
      4.55203578e-002 0. 2.58015785e-002 1.89741738e-002 0.
      1.47231789e-002 1.42216729e-002 5.23356609e-002 2.17875764e-002
      3.12527381e-002 2.82314401e-002 0. 0. 0. 0. 3.15300710e-002
      3.58127356e-002 1.21932114e-002 1.77222323e-002 0. 1.65295918e-002
      4.21686359e-002 5.88321723e-002 0. 7.14238808e-002 1.95121169e-002
      0. 4.77973707e-002 5.13648912e-002 0. 9.58951749e-003 0.
      2.64558829e-002 2.98367422e-002 0. 1.91773884e-002 3.31602953e-002
      0. 1.63663551e-002 2.10926570e-002 2.84019522e-002 3.45816649e-002
      3.71386064e-003 3.48167010e-002 2.57889237e-002 5.85209653e-002
      4.81110550e-002 8.50019604e-002 0. 2.28831917e-002 0.
      4.26901989e-002 0. 2.22100373e-002 2.07008477e-002 3.83352786e-002
      1.02601629e-002 4.69959667e-003 0. 2.77667847e-002 2.21937038e-002
      0. 0. 2.81780101e-002 3.24139968e-002 1.32037196e-002
      5.84232807e-003 4.70679626e-002 1.28935529e-002 3.59963775e-002 0.
      3.24518085e-002 2.52702571e-002 0. 2.30226535e-002 2.07751859e-002
      3.69420610e-002 2.58755535e-002 0. 6.34765923e-002 4.43287659e-003
      8.44785757e-003 9.72790923e-003 0. 0. 4.42000143e-002
      4.49146926e-002 3.58178876e-002 2.10626703e-002 1.96986627e-002 0.
      1.47639588e-002 1.86457820e-002 0. 7.30868801e-003 4.18213829e-002
      3.49627174e-002 0. 0. 0. 2.94917133e-002 9.73390229e-003
      7.87548348e-003 3.08160651e-002 0. 2.64072958e-002 2.89851092e-002
      0. 3.65533829e-002 0. 1.35578122e-002 1.49252545e-002
      2.26079654e-002 2.02647783e-002 5.93029074e-002 0. 0.
      1.40549308e-002 5.03695756e-002 3.23203653e-002 0. 5.30686835e-003
      2.23793164e-002 0. 2.47441847e-002 0. 0. 3.09623666e-002
      6.06987737e-002 2.50448491e-002 3.29696015e-002 0. 8.86876229e-003
      0. 3.47692631e-002 1.18395807e-002 0. 0. 0. 0. 2.69653574e-002
      2.69403141e-002 8.42042193e-002 1.58012602e-002 0. 1.81145240e-002
      3.51197571e-002 2.79175155e-002 0. 0. 1.58398245e-002
      1.31118903e-002 1.79229807e-002 3.09060272e-002 3.40752229e-002 0.
      0. 2.55350228e-002 0. 0. 0. 4.74046431e-002 0. 1.00557990e-002
      2.83382628e-002 0. 3.67451794e-002 0. 1.65451784e-002
      3.55380327e-002 0. 2.24876087e-002 4.33053672e-002 9.58432164e-003
      2.95296833e-002 0. 0. 1.48560060e-002 3.56704555e-002
      1.29871160e-001 1.85926352e-002 1.04584321e-002 3.09436638e-002 0.
      0. 1.04527008e-002 5.39106764e-002 0. 0. 0. 3.19233052e-002
      4.69406461e-003 3.64537053e-002 5.58771044e-002 3.04984171e-002
      2.84520686e-002 0. 0. 0. 4.98410426e-002 1.56662107e-001
      2.58161556e-002 2.69826017e-002 0. 3.24061513e-002 0. 0. 0.
      6.36741444e-002 6.78789895e-003 0. 3.14325653e-002 6.76420517e-003
      1.56341530e-002 0. 0. 0. 0. 0. 6.79839775e-003 4.32275198e-002 0.
      0. 1.13539491e-002 0. 0. 4.12279516e-002 1.70178469e-002
      8.73194635e-003 0. 0. 3.77225578e-002 1.06282849e-002
      3.71911377e-002 0. 0. 9.25876666e-003 3.29119116e-002 0.
      1.29667465e-002 1.82506703e-002 0. 0. 0. 0. 1.98880751e-002 0. 0.
      0. 8.17419738e-002 3.90754603e-002 0. 0. 0. 0. 1.84707586e-002
      4.78986092e-002 0. 0. 0. 3.73731740e-002 0. 0. 1.41527010e-002
      6.56336173e-003 1.74957942e-002 2.25507524e-002 3.10495943e-002 0.
      1.55037455e-002 0. 0. 2.95753721e-002 0. 0. 8.82927030e-002
      1.64990053e-002 0. 0. 9.24340338e-002 4.10748534e-002
      1.64600499e-002 1.20056756e-001 0. 0. 2.27316637e-002 0.
      1.95265841e-002 0. 6.18946329e-002 1.90109648e-002 0.
      4.28100228e-002 0. 0. 0. 0. 3.09577044e-002 0. 8.54767580e-003
      2.15069298e-002 0. 8.01821277e-002 0. 0. 0. 0. 1.79491322e-002
      6.99858069e-002 3.70311253e-002 0. 1.79172494e-002 1.44752366e-002
      2.00589076e-002 5.84550668e-003 0. 1.25183780e-002 3.99651304e-002
      4.36667204e-002 1.86713655e-002 0. 0. 2.88445074e-002 0. 0. 0.
      1.90935675e-002 1.86302103e-002 4.45969775e-002 0. 0. 0.
      1.27550885e-002 0. 8.29190761e-003 0. 0. 3.98547575e-002
      1.36044333e-002 3.05786841e-002 3.49093303e-002 3.42039876e-002 0.
      2.58588605e-002 0. 2.75077447e-002 0. 1.42138638e-002 0. 0.
      9.07759592e-002 6.37769187e-003 1.90542955e-002 3.37312259e-002
      1.69814620e-002 1.50570134e-002 2.21451954e-003 2.37914566e-002
      1.56920571e-002 0. 0. 2.58249789e-002 4.95233759e-002 0.
      2.50590909e-002 4.17353734e-002 0. 0. 3.76486741e-002
      1.79778449e-002 2.68462151e-002 0. 0. 2.28311084e-002
      6.38255849e-002 8.01655184e-003 2.22456292e-003 0. 1.25245340e-002
      9.79268402e-002 6.63038483e-003 5.52215567e-003 2.47699693e-002 0.
      0. 4.15427759e-002 0. 0. 0. 0. 0. 0. 0. 3.26513387e-002
      4.02995571e-003 0. 0. 5.47929630e-002 3.52073647e-002
      1.79829318e-002 0. 7.60149658e-002 0. 1.42628709e-002
      3.41015868e-002 1.01464354e-002 1.98719837e-002 0. 4.34379932e-003
      2.77605597e-002 3.99599560e-002 2.16321573e-002 0. 0.
      2.43687741e-002 2.23843027e-002 5.67918308e-002 0. 0.
      2.47557368e-002 4.17395122e-002 0. 1.31128775e-002 2.09717900e-002
      2.81760804e-002 0. 6.32295236e-002 2.84757838e-002 1.23565178e-002
      1.44555680e-002 2.42986344e-002 0. 3.72009794e-003 3.22652864e-004
      0. 2.20163967e-002 0. 2.76981238e-002 1.05732940e-002
      3.84805091e-002 9.30089206e-002 0. 3.38802338e-002 5.37682399e-002
      4.78687324e-002 2.11496931e-002 6.39030635e-002 3.32428352e-003
      1.10796690e-002 0. 0. 0. 2.17396766e-002 0. 3.28792706e-002 0.
      3.43973865e-003 4.07071859e-002 0. 0. 0. 0. 0. 0. 2.26812530e-002
      3.66309509e-002 2.16569230e-002 0. 3.38216908e-002 6.34878501e-002
      5.51363751e-002 2.01199744e-002 7.16453651e-003 1.21935746e-002
      2.11784896e-002 0. 0. 2.34445203e-002 1.82291996e-002 0. 0. 0.
      4.22225483e-002 0. 4.81182188e-002 1.20742535e-002 0.
      2.79821903e-002 1.98108889e-002 0. 0. 0. 0. 0. 1.30488882e-002 0.
      0. 2.77870707e-002 1.60582606e-002 0. 0. 5.27567305e-002 0. 0. 0.
      0. 1.25449849e-002 1.01927826e-002 5.45730516e-002 1.21119525e-002
      2.02699061e-002 2.48022489e-002 8.65087565e-003 0. 2.03875620e-002
      2.49095857e-002 3.85056324e-002 3.12657803e-002 0. 2.08422169e-002
      2.65448485e-002 2.06806324e-002 0. 0. 0. 0. 2.88018435e-002
      2.00757440e-002 3.45196277e-002 0. 3.98219526e-002 5.78053035e-002
      0. 0. 4.82466817e-002 1.78599381e-003 0. 3.39669362e-002
      5.12725711e-002 7.09774867e-002 2.96559576e-002 0. 4.75394651e-002
      1.30841639e-002 3.37447077e-002 0. 0. 2.32035946e-002
      2.94261165e-002 5.11061437e-002 0. 5.78361042e-002 3.63515690e-002
      2.47704256e-002 4.51248921e-002 2.92245746e-002 1.17807565e-002 0.
      2.11359691e-002 5.78929670e-004 0. 0. 0. 0. 0. 0. 0.
      2.60865875e-002 0. 0. 2.62125675e-002 0. 0. 0. 0. 0. 0. 0. 0. 0.
      3.07863560e-002 0. 0. 0. 0. 0. 0. 0. 0. 0. 3.27803902e-002
      1.63399596e-002 0. 0. 4.26728204e-002 0. 0. 0. 0. 0. 0. 0. 0.
      1.89741738e-002 0. 0. 1.42216729e-002 2.83576380e-002
      2.17875764e-002 3.12527381e-002 0. 0. 0. 0. 0. 3.03209480e-002
      3.58127356e-002 0. 0. 0. 1.65295918e-002 0. 5.88321723e-002 0. 0.
      1.95121169e-002 0. 0. 0. 0. 0. 0. 0. 0. 0. 1.91773884e-002 0. 0.
      1.63663551e-002 8.20992235e-003 2.84019522e-002 0. 0.
      3.48167010e-002 0. 5.85209653e-002 3.23204882e-002 0. 0. 0. 0.
      3.29824090e-002 0. 2.22100373e-002 2.05831882e-002 0. 0. 0. 0.
      2.77667847e-002 0. 0. 0. 0. 1.89756751e-002 2.51935353e-003 0. 0.
      1.28935529e-002 2.15359852e-002 0. 0. 2.52702571e-002 0.
      1.60831644e-003 0. 4.76891408e-003 8.17649718e-003 0. 0. 0. 0. 0.
      0. 0. 4.42000143e-002 0. 0. 0. 0. 0. 1.47639588e-002 0. 0. 0.
      4.18213829e-002 0. 0. 0. 0. 0. 6.27642544e-003 0. 3.08160651e-002
      0. 2.64072958e-002 2.89851092e-002 0. 0. 0. 0. 1.49252545e-002 0.
      2.02647783e-002 0. 0. 0. 0. 4.57854085e-002 0. 0. 0. 0. 0. 0. 0.
      0. 3.09623666e-002 0. 0. 0. 0. 0. 0. 0. 0. 0. 0. 0. 0. 0. 0.
      8.42042193e-002 1.57177262e-002 0. 0. 0. 0. 0. 0. 1.58398245e-002
      0. 1.79229807e-002 0. 0. 0. 0. 0. 0. 0. 0. 0. 0. 0. 0. 0. 0. 0. 0.
      0. 0. 1.11800444e-003 7.27806520e-003 0. 0. 0. 0. 0.
      3.56704555e-002 0. 0. 0. 3.09436638e-002 0. 0. 1.04527008e-002
      5.39106764e-002 0. 0. 0. 3.19233052e-002 4.69406461e-003 0.
      6.75544096e-003 0. 2.84520686e-002 0. 0. 0. 0. 0. 0. 0. 0. 0. 0.
      0. 0. 0. 4.94397618e-003 0. 3.14325653e-002 0. 0. 0. 0. 0. 0. 0.
      6.79839775e-003 2.02585068e-002 0. 0. 1.13539491e-002 0. 0.
      4.12279516e-002 0. 0. 0. 0. 0. 0. 2.49767490e-002 0. 0. 0. 0. 0.
      0. 0. 0. 0. 0. 0. 0. 0. 0. 0. 8.17419738e-002 0. 0. 0. 0. 0. 0. 0.
      0. 0. 0. 1.27679724e-002 0. 0. 1.41527010e-002 0. 0.
      1.88800935e-002 0. 0. 0. 0. 0. 1.89488102e-002 0. 0.
      8.82927030e-002 0. 0. 0. 0. 0. 0. 1.20056756e-001 0. 0. 0. 0. 0.
      0. 1.29293436e-002 0. 0. 4.28100228e-002 0. 0. 0. 0.
      3.07388697e-002 0. 0. 0. 0. 2.51450222e-002 0. 0. 0. 0.
      1.71692111e-002 2.30853874e-002 3.70311253e-002 0. 0.
      1.44752366e-002 2.00589076e-002 5.84550668e-003 0. 1.25183780e-002
      3.99651304e-002 0. 0. 0. 0. 0. 0. 0. 0. 0. 1.86302103e-002
      2.39777602e-002 0. 0. 0. 3.53813008e-003 0. 0. 0. 0. 0. 0. 0.
      3.49093303e-002 3.34529951e-002 0. 0. 0. 0. 0. 0. 0. 0.
      4.89890203e-002 6.37769187e-003 1.90542955e-002 0. 0. 0. 0. 0. 0.
      0. 0. 0. 0. 0. 0. 0. 0. 0. 0. 1.79778449e-002 0. 0. 0. 0. 0. 0. 0.
      0. 0. 1.03031881e-002 6.33944059e-003 0. 0. 0. 0. 4.15427759e-002
      0. 0. 0. 0. 0. 0. 0. 0. 0. 0. 0. 0. 3.52073647e-002
      1.79829318e-002 0. 7.60149658e-002 0. 1.42628709e-002
      3.41015868e-002 0. 0. 0. 0. 2.77605597e-002 7.89259560e-003 0. 0.
      0. 2.43687741e-002 0. 2.39407681e-002 0. 0. 1.28122708e-002
      4.17395122e-002 0. 0. 2.09717900e-002 0. 0. 6.32295236e-002
      2.84757838e-002 0. 0. 7.35581014e-003 0. 0. 3.22652864e-004 0. 0.
      0. 0. 1.05732940e-002 0. 9.30089206e-002 0. 0. 0. 0. 0.
      2.90421508e-002 0. 0. 0. 0. 0. 0. 0. 0. 0. 3.43973865e-003
      2.85404157e-002 0. 0. 0. 0. 0. 0. 0. 0. 0. 0. 0. 6.34878501e-002
      0. 6.99736131e-003 0. 1.21935746e-002 0. 0. 0. 2.34445203e-002
      5.86240366e-003 0. 0. 0. 0. 0. 0. 1.20742535e-002 0.
      8.75640102e-003 1.98108889e-002 0. 0. 0. 0. 0. 0. 0. 0. 0. 0. 0.
      0. 0. 0. 0. 0. 0. 0. 1.01927826e-002 1.31607139e-002 0. 0.
      2.48022489e-002 0. 0. 0. 2.49095857e-002 0. 0. 0. 0. 0. 0. 0. 0.
      0. 0. 0. 2.00757440e-002 3.45196277e-002 0. 3.27485278e-002 0. 0.
      0. 0. 0. 0. 3.39669362e-002 0. 2.01357082e-002 0. 0. 0.
      1.30841639e-002 0. 0. 0. 2.32035946e-002 0. 1.68448053e-002 0. 0.
      0. 1.72697231e-002 0. 0. 1.17807565e-002 0. 0. 0. 0. 0. 0. 0. 0.
      1.14822313e-002 0. 0. 0. 0. 0. 0. 0. 0. 8.28615949e-003 0. 0. 0.
      0. 2.87674721e-002 6.39509782e-002 0. 0. 0. 0. 0. 2.66989134e-002
      2.04655211e-002 0. 0. 0. 0. 0. 0. 2.59938706e-002 0. 0. 0. 0. 0.
      0. 0. 2.58015785e-002 0. 0. 1.47231789e-002 0. 0. 0.
      1.78747624e-002 0. 0. 0. 0. 0. 0. 0. 0. 1.77222323e-002 0. 0. 0.
      0. 0. 0. 0. 0. 4.77973707e-002 0. 0. 0. 0. 0. 2.98367422e-002 0.
      1.69660356e-002 0. 0. 0. 2.10926570e-002 0. 0. 0. 0. 0.
      3.87394205e-002 0. 8.50019604e-002 0. 0. 0. 2.38185935e-002 0. 0.
      2.07008477e-002 1.78286678e-003 0. 0. 0. 0. 0. 0. 0.
      2.81780101e-002 1.19591411e-002 0. 5.84232807e-003 0. 0.
      3.59963775e-002 0. 2.25477517e-002 0. 0. 0. 2.07751859e-002
      7.71115359e-004 2.58755535e-002 0. 4.13418487e-002 0.
      8.44785757e-003 9.72790923e-003 0. 0. 0. 0. 3.58178876e-002
      2.10626703e-002 1.96986627e-002 0. 8.85624147e-004 1.86457820e-002
      0. 0. 0. 0. 0. 0. 0. 2.02003382e-002 0. 7.87548348e-003 0. 0. 0.
      1.59262773e-002 0. 3.65533829e-002 0. 0. 0. 2.26079654e-002 0. 0.
      0. 0. 0. 0. 0. 0. 0. 0. 0. 0. 0. 0. 0. 0. 2.50448491e-002
      3.29696015e-002 0. 0. 0. 3.47692631e-002 1.18395807e-002 0. 0. 0.
      0. 2.69653574e-002 0. 5.57879396e-002 1.58012602e-002 0. 0. 0.
      6.92055095e-003 0. 0. 0. 1.31118903e-002 0. 3.09060272e-002
      3.40752229e-002 0. 0. 0. 0. 0. 0. 0. 0. 0. 0. 0. 3.67451794e-002
      0. 0. 3.55380327e-002 0. 2.24876087e-002 0. 0. 2.53093019e-002 0.
      0. 1.48560060e-002 0. 0. 0. 0. 1.85666233e-002 0. 0. 0.
      4.02079057e-003 0. 0. 0. 0. 0. 3.64537053e-002 0. 0. 0. 0. 0. 0.
      4.98410426e-002 0. 0. 0. 0. 3.24061513e-002 0. 0. 0.
      6.36741444e-002 0. 0. 6.04655361e-004 6.76420517e-003
      1.56341530e-002 0. 0. 0. 0. 0. 0. 0. 0. 0. 0. 0. 0.
      2.75504496e-002 0. 4.73327236e-003 0. 0. 3.57240066e-002 0.
      8.62039253e-003 0. 0. 0. 0. 0. 0. 1.82506703e-002 0. 0. 0. 0.
      1.98880751e-002 0. 0. 0. 2.76069925e-003 0. 0. 0. 0. 0. 0. 0. 0.
      0. 0. 3.73731740e-002 0. 0. 0. 0. 1.74957942e-002 0. 0. 0. 0. 0.
      0. 2.95753721e-002 0. 0. 0. 1.64990053e-002 0. 0. 0.
      4.10748534e-002 0. 0. 0. 0. 2.27316637e-002 0. 1.95265841e-002 0.
      6.18946329e-002 0. 0. 2.29651667e-002 0. 0. 0. 0. 2.59742513e-002
      0. 0. 0. 0. 0. 0. 0. 0. 0. 0. 6.99858069e-002 0. 0.
      1.79172494e-002 1.04670944e-002 0. 0. 0. 0. 0. 4.36667204e-002 0.
      0. 0. 0. 0. 0. 0. 1.90935675e-002 0. 4.45969775e-002 0. 0. 0.
      1.27550885e-002 0. 0. 0. 0. 0. 1.36044333e-002 3.05786841e-002
      7.33098621e-003 3.04087531e-002 0. 0. 0. 0. 0. 1.42138638e-002 0.
      0. 0. 0. 0. 3.37312259e-002 0. 0. 2.21451954e-003 2.37914566e-002
      1.56920571e-002 0. 0. 0. 0. 0. 0. 0. 0. 0. 0. 0. 2.68462151e-002
      0. 0. 2.28311084e-002 1.80607140e-002 0. 2.22456292e-003 0.
      1.25245340e-002 0. 0. 0. 0. 0. 0. 0. 0. 0. 0. 0. 0. 0. 0. 0. 0. 0.
      0. 5.47929630e-002 0. 0. 0. 0. 0. 0. 3.04758251e-002 0.
      1.98719837e-002 0. 0. 0. 3.03767025e-002 2.16321573e-002 0. 0. 0.
      0. 0. 0. 0. 2.47557368e-002 0. 0. 1.31128775e-002 1.87438875e-002
      2.81760804e-002 0. 0. 0. 0. 1.44555680e-002 0. 0. 3.72009794e-003
      0. 0. 0. 0. 0. 5.54918731e-003 3.84805091e-002 0. 0.
      3.38802338e-002 5.37682399e-002 4.78687324e-002 0. 0. 0. 0. 0. 0.
      0. 3.20286956e-003 0. 3.28792706e-002 0. 0. 4.07071859e-002 0. 0.
      0. 0. 0. 0. 0. 3.66309509e-002 0. 0. 0. 0. 0. 9.69256088e-003
      7.16453651e-003 0. 2.11784896e-002 0. 0. 0. 0. 0. 0. 0.
      1.63786169e-002 0. 4.81182188e-002 0. 0. 2.79821903e-002
      1.91956051e-002 0. 0. 0. 0. 0. 0. 0. 0. 2.77870707e-002 0. 0. 0.
      1.90055221e-002 0. 0. 0. 0. 1.25449849e-002 0. 0. 1.21119525e-002
      0. 0. 0. 0. 0. 5.56736952e-003 3.85056324e-002 2.37589106e-002 0.
      0. 0. 0. 0. 0. 0. 0. 0. 0. 0. 0. 3.98219526e-002 2.46626381e-002
      0. 0. 4.82466817e-002 0. 0. 0. 0. 0. 2.96559576e-002 0.
      2.66849939e-002 0. 2.39203852e-002 0. 0. 0. 0. 0. 0.
      2.44899485e-002 1.60039179e-002 2.47704256e-002 0. 0.
      5.04882401e-003 0. 0. 0. 0. 0. 0. 0. 0. 0. 0. 0. 0. 0. 0. 0. 0. 0.
      3.44188735e-002 4.52819318e-002 0. 0. 0. 0. 0. 0. 0. 0.
      5.85371256e-002 0. 0. 0. 0. 0. 0. 0. 0. 8.71312711e-003
      2.47261282e-002 0. 0. 0. 0. 0. 4.55203578e-002 0. 0. 0. 0. 0.
      7.01631233e-003 5.23356609e-002 1.80487521e-002 0. 2.82314401e-002
      0. 0. 0. 0. 0. 0. 1.21932114e-002 0. 0. 0. 4.21686359e-002 0. 0.
      0. 1.60418265e-002 0. 0. 0. 0. 9.58951749e-003 0. 2.64558829e-002
      0. 0. 0. 3.31602953e-002 0. 1.57773215e-002 0. 1.44440597e-002
      3.45816649e-002 3.71386064e-003 1.11415582e-002 2.57889237e-002 0.
      0. 1.29327318e-002 0. 2.28831917e-002 0. 0. 0. 1.79286189e-002 0.
      3.83352786e-002 1.02601629e-002 4.69959667e-003 0. 2.04639118e-002
      2.21937038e-002 0. 0. 2.53725629e-002 3.24139968e-002 0. 0.
      4.70679626e-002 0. 0. 0. 3.24518085e-002 0. 0. 2.30226535e-002 0.
      3.69420610e-002 0. 0. 0. 0. 0. 0. 0. 0. 0. 0. 0. 0. 0. 0. 0. 0. 0.
      7.30868801e-003 0. 3.49627174e-002 0. 0. 0. 2.94917133e-002
      9.73390229e-003 0. 0. 0. 0. 0. 0. 0. 0. 1.35578122e-002
      8.12439248e-003 0. 1.51138594e-002 5.93029074e-002 0. 0. 0.
      4.36904700e-003 3.23203653e-002 0. 5.30686835e-003 2.23793164e-002
      0. 0. 0. 0. 0. 1.89754982e-002 0. 0. 0. 8.86876229e-003 0. 0. 0.
      0. 0. 0. 0. 0. 2.69403141e-002 0. 6.96096942e-003 0. 0.
      3.51197571e-002 2.79175155e-002 0. 0. 0. 0. 0. 0. 0. 0. 0.
      2.55350228e-002 0. 0. 0. 0. 0. 1.00557990e-002 2.83382628e-002 0.
      0. 0. 1.65451784e-002 1.25769398e-003 0. 0. 4.33053672e-002
      9.58432164e-003 0. 0. 0. 0. 0. 5.68031967e-002 0. 1.04584321e-002
      0. 0. 0. 0. 0. 0. 0. 0. 5.71790338e-003 0. 0. 0. 0. 0. 0. 0. 0. 0.
      0. 2.58161556e-002 0. 0. 1.99596398e-002 0. 0. 0. 0. 0. 0. 0. 0.
      0. 0. 0. 0. 0. 0. 0. 4.32275198e-002 0. 0. 0. 0. 0. 0.
      1.70178469e-002 0. 0. 0. 0. 1.06282849e-002 3.71911377e-002 0. 0.
      0. 3.29119116e-002 0. 0. 0. 0. 0. 0. 0. 0. 0. 0. 0. 0.
      3.90754603e-002 0. 0. 0. 0. 0. 4.78986092e-002 0. 0. 0. 0. 0. 0.
      0. 6.56336173e-003 0. 0. 3.10495943e-002 0. 1.55037455e-002 0. 0.
      2.71691419e-002 0. 0. 0. 1.49078863e-002 0. 0. 9.24340338e-002 0.
      1.64600499e-002 0. 0. 0. 0. 0. 0. 0. 0. 1.28982309e-002 0. 0. 0.
      0. 0. 0. 3.09577044e-002 0. 0. 2.15069298e-002 0. 8.01821277e-002
      0. 0. 0. 0. 1.79491322e-002 2.32545435e-002 0. 0. 0. 0.
      1.34627055e-002 0. 0. 0. 0. 0. 0. 0. 0. 0. 0. 0. 0. 0. 0.
      1.20967859e-002 0. 0. 0. 0. 0. 8.29190761e-003 0. 0. 0. 0. 0. 0.
      3.42039876e-002 0. 2.58588605e-002 0. 0. 0. 0. 0. 0. 0. 0. 0. 0.
      1.69814620e-002 1.50570134e-002 0. 1.78921595e-002 0. 0. 0. 0.
      4.95233759e-002 0. 0. 4.17353734e-002 0. 0. 3.76486741e-002 0. 0.
      0. 0. 0. 0. 0. 0. 0. 0. 3.58526632e-002 0. 5.52215567e-003
      2.47699693e-002 0. 0. 0. 0. 0. 0. 0. 0. 0. 0. 3.26513387e-002 0.
      0. 0. 4.44358811e-002 0. 0. 0. 0. 0. 0. 0. 1.01464354e-002
      9.52441897e-003 0. 4.34379932e-003 8.99113063e-003 0. 0. 0. 0.
      1.64042935e-002 2.23843027e-002 5.67918308e-002 0. 0. 0. 0. 0. 0.
      0. 0. 0. 0. 0. 0. 0. 2.42986344e-002 0. 0. 0. 0. 0. 0.
      2.76981238e-002 0. 0. 0. 0. 0. 4.40817028e-002 0. 0.
      6.39030635e-002 0. 0. 0. 0. 0. 2.17396766e-002 0. 0. 0. 0. 0. 0.
      0. 0. 0. 0. 0. 0. 0. 2.16569230e-002 0. 3.38216908e-002 0. 0.
      2.01199744e-002 0. 0. 0. 0. 0. 0. 1.82291996e-002 0. 0. 0. 0. 0.
      0. 0. 0. 0. 1.94995035e-003 0. 0. 0. 0. 0. 0. 0. 0. 0. 0. 0. 0. 0.
      0. 0. 0. 0. 0. 0. 0. 0. 2.02699061e-002 0. 0. 0. 0. 0. 0. 0. 0.
      2.05873791e-002 2.65448485e-002 2.06806324e-002 0. 0. 0. 0.
      2.88018435e-002 8.70889984e-003 0. 0. 3.45336311e-002
      2.59800330e-002 0. 0. 0. 1.78599381e-003 0. 0. 5.12725711e-002 0.
      0. 0. 4.75394651e-002 7.06189033e-003 3.37447077e-002 0. 0. 0.
      2.94261165e-002 5.11061437e-002 0. 5.78361042e-002 0. 0.
      4.51248921e-002 0. 0. 0. 2.11359691e-002 0. 0. 0. 0. 0. 0. 0. 0.
      0. 0. 0. 0. 0. 0. 0. 0. 0. 0. 1.68869272e-002 0. 0. 0. 0. 0. 0. 0.
      0. 0. 0. 2.77312268e-002 0. 0. 0. 0. 0. 0. 0. 0. 0. 0. 0. 0. 0. 0.
      0. 0. 0. 0. 0. 0. 0. 0. 0. 0. 0. 0. 3.15300710e-002 0. 0.
      1.67189501e-002 0. 0. 0. 2.18321569e-002 0. 7.14238808e-002 0. 0.
      0. 5.13648912e-002 0. 0. 0. 0. 0. 0. 0. 0. 0. 0. 0. 0. 0. 0. 0. 0.
      0. 4.81110550e-002 2.50568017e-002 0. 0. 0. 4.26901989e-002 0. 0.
      0. 0. 0. 0. 0. 0. 0. 0. 0. 0. 0. 1.32037196e-002 0. 0. 0.
      1.94533430e-002 0. 2.74290107e-002 0. 0. 0. 0. 0. 0. 0.
      6.34765923e-002 4.43287659e-003 0. 0. 0. 0. 0. 4.49146926e-002 0.
      0. 0. 0. 0. 0. 0. 0. 0. 0. 0. 0. 0. 0. 0. 0. 0. 0. 1.26029430e-002
      0. 0. 0. 0. 0. 0. 0. 0. 3.18272524e-002 0. 0. 1.40549308e-002
      5.03695756e-002 0. 0. 0. 0. 0. 2.47441847e-002 0. 0. 0.
      6.06987737e-002 0. 0. 0. 0. 0. 1.40612442e-002 0. 0. 0. 0. 0.
      1.87358204e-002 0. 1.23192165e-002 0. 0. 1.81145240e-002 0.
      1.14314789e-002 0. 0. 0. 0. 0. 0. 2.44022533e-002 0. 0. 0. 0. 0.
      0. 4.74046431e-002 0. 0. 1.53406290e-002 0. 0. 0. 0. 0. 0. 0. 0.
      0. 2.95296833e-002 0. 0. 0. 0. 1.29871160e-001 1.85926352e-002 0.
      0. 0. 0. 0. 0. 0. 0. 0. 0. 0. 0. 5.58771044e-002 3.04984171e-002
      0. 0. 0. 0. 2.81966161e-002 1.56662107e-001 0. 2.69826017e-002 0.
      0. 0. 0. 0. 0. 6.78789895e-003 0. 0. 1.76280318e-003
      8.88968352e-003 0. 0. 0. 0. 0. 0. 0. 0. 0. 0. 0. 0. 0. 0.
      8.73194635e-003 0. 0. 3.77225578e-002 0. 0. 0. 0. 9.25876666e-003
      0. 0. 1.29667465e-002 0. 0. 0. 0. 0. 1.46246953e-002 0. 0. 0. 0.
      0. 0. 0. 0. 0. 1.84707586e-002 0. 0. 0. 0. 0. 0. 0. 0. 0. 0.
      2.25507524e-002 2.20156810e-003 0. 0. 0. 0. 0. 0. 0.
      4.13024388e-002 0. 0. 0. 0. 0. 0. 3.16221081e-002 0. 0. 0. 0. 0.
      0. 0. 1.90109648e-002 0. 0. 0. 0. 0. 0. 0. 0. 8.54767580e-003 0.
      0. 2.70455871e-002 0. 0. 0. 0. 0. 0. 0. 0. 0. 0. 0. 0. 0. 0. 0.
      4.45711514e-004 1.86713655e-002 0. 0. 2.88445074e-002 0. 0. 0.
      6.04533171e-003 0. 0. 0. 0. 0. 0. 0. 0. 0. 0. 3.98547575e-002 0.
      0. 0. 0. 0. 0. 0. 2.75077447e-002 0. 0. 0. 0. 9.07759592e-002 0.
      0. 2.93497872e-002 8.54932517e-003 0. 0. 0. 0. 0. 0.
      2.58249789e-002 0. 0. 2.50590909e-002 0. 0. 0. 0. 0. 0. 0. 0.
      6.67301752e-003 6.38255849e-002 8.01655184e-003 0. 0. 0.
      9.79268402e-002 6.63038483e-003 0. 0. 0. 0. 2.58377586e-002 0. 0.
      0. 0. 0. 0. 0. 0. 4.02995571e-003 0. 0. 9.13770869e-003 0. 0. 0.
      0. 0. 0. 0. 0. 0. 0. 0. 0. 3.99599560e-002 0. 0. 0. 0. 0. 0. 0. 0.
      0. 0. 0. 0. 0. 0. 0. 4.02355343e-002 0. 1.23565178e-002 0.
      1.79149266e-002 0. 0. 0. 0. 2.20163967e-002 0. 0. 0. 0.
      2.40034573e-002 0. 0. 0. 0. 2.11496931e-002 0. 3.32428352e-003
      1.10796690e-002 0. 0. 0. 0. 0. 0. 0. 0. 0. 0. 0. 0. 0. 0. 0.
      2.26812530e-002 0. 0. 0. 0. 0. 5.51363751e-002 0. 0. 0. 0. 0. 0.
      0. 0. 0. 0. 0. 4.22225483e-002 0. 0. 0. 0. 0. 6.95551978e-003 0.
      0. 0. 0. 0. 1.30488882e-002 0. 0. 0. 1.60582606e-002 0. 0.
      5.27567305e-002 0. 0. 0. 0. 0. 0. 5.45730516e-002 0. 0. 0.
      8.65087565e-003 0. 2.03875620e-002 0. 0. 3.12657803e-002 0.
      2.08422169e-002 0. 0. 0. 0. 0. 0. 0. 0. 0. 0. 0. 5.78053035e-002
      0. 0. 0. 0. 0. 0. 0. 7.09774867e-002 0. 0. 0. 0. 3.96038312e-003
      0. 0. 0. 1.30506232e-002 2.35704742e-002 0. 0. 3.63515690e-002 0.
      0. 2.92245746e-002 0. 0. 0. 5.78929670e-004 0. 0. 0.</_>
    <_>
      7.23971203e-002 2.21702568e-002 0. 0. 0. 0. 0. 0. 0. 0. 0. 0.
      4.41077165e-002 0. 3.64206620e-002 0. 0. 0. 0. 1.85622647e-002
      8.82749707e-002 0. 6.84759812e-003 0. 0. 2.14763153e-002
      5.09381890e-002 0. 0. 0. 0. 0. 0. 0. 0. 0. 0. 3.80630344e-002 0.
      0. 0. 0. 0. 4.25249673e-002 2.94189155e-002 2.49823891e-002
      3.78220007e-002 4.02532965e-002 0. 3.97053622e-002 1.93672311e-002
      0. 0. 2.32808888e-002 2.54380088e-002 0. 0. 0. 4.58047166e-002
      4.45717983e-002 0. 1.22134879e-001 0. 4.10929210e-002 0.
      2.28965208e-002 1.69781595e-002 1.57711934e-002 1.62070729e-002
      4.07835990e-002 6.39277548e-002 1.21039785e-001 0. 0. 0. 0. 0. 0.
      0. 0. 0. 0. 0. 3.84293385e-002 0. 0. 0. 2.26563159e-002 0. 0. 0.
      4.76848967e-002 0. 0. 0. 0. 4.27491590e-002 1.20922476e-002
      1.52417077e-002 0. 0. 0. 0. 0. 5.89627847e-002 1.82999857e-002
      6.63636625e-003 3.38890254e-002 0. 0. 0. 2.31500883e-002 0. 0. 0.
      0. 0. 0. 0. 0. 0. 0. 0. 0. 1.99107882e-002 0. 0. 0. 0.
      5.77356964e-002 0. 8.93511157e-003 0. 0. 0. 0. 2.23510843e-002 0.
      1.42904939e-002 0. 1.47445416e-002 0. 1.08880147e-001 0. 0. 0. 0.
      0. 0. 4.21900302e-002 0. 4.44533229e-002 0. 0. 1.36278465e-003
      4.40568104e-002 8.08562562e-002 0. 2.31781397e-002 3.18275020e-002
      0. 2.71446109e-002 5.26810177e-002 0. 0. 6.69809654e-002 0. 0. 0.
      0. 0. 0. 0. 0. 0. 4.14882861e-002 0. 0. 5.07871248e-002 0. 0.
      4.95101660e-002 0. 3.83828655e-002 0. 0. 0. 0. 1.85577758e-002 0.
      0. 0. 1.54678542e-002 3.79857905e-002 7.79894963e-002 0. 0.
      6.43841401e-002 6.87274560e-002 0. 0. 0. 0. 0. 0. 4.06665669e-004
      0. 2.17229445e-002 0. 0. 1.01396129e-001 0. 2.16653813e-002 0. 0.
      0. 1.13572702e-001 0. 4.47926223e-002 0. 1.10513210e-001 0.
      1.35149164e-002 6.39269575e-002 0. 0. 8.44646711e-003
      4.63296957e-002 0. 0. 1.04276285e-001 0. 0. 1.96382180e-002
      2.80537512e-002 6.02457412e-002 0. 0. 5.27453888e-003 0. 0. 0.
      3.23552676e-002 3.16406563e-002 0. 0. 0. 0. 3.48372087e-002 0. 0.
      0. 0. 0. 2.63898782e-002 0. 0. 0. 5.15620410e-002 0.
      1.97893009e-002 6.43239310e-003 0. 3.77464183e-002 0. 0.
      7.75677338e-002 0. 0. 0. 0. 0. 0. 0. 0. 5.74751534e-002
      3.34141105e-002 1.84509773e-002 0. 0. 0. 0. 4.44617569e-002
      3.87931056e-002 0. 7.41083845e-002 0. 0. 0. 1.64944641e-002
      1.37121435e-002 0. 9.20032803e-003 0. 0. 3.64293042e-003 0. 0.
      2.29405202e-002 0. 0. 1.34594724e-001 0. 1.94004625e-002
      6.73748786e-003 5.78636266e-002 0. 0. 0. 1.28654065e-002 0.
      3.55193950e-002 5.41214198e-002 0. 3.43190096e-002 1.75109692e-002
      0. 0. 0. 6.87516332e-002 3.25012021e-002 0. 0. 0. 0.
      5.40174730e-002 0. 2.28288267e-002 0. 0. 2.90225875e-002 0. 0. 0.
      0. 0. 0. 4.86501046e-002 0. 5.85638657e-002 1.72820035e-002
      1.94661207e-002 7.76663423e-002 3.07983942e-002 0. 0. 0. 0. 0. 0.
      0. 0. 2.50223596e-002 1.03207696e-002 0. 0. 0. 0. 0. 0. 0.
      3.92526314e-002 0. 0. 1.11083910e-002 0. 0. 5.09086698e-002 0. 0.
      2.71978192e-002 0. 0. 0. 0. 0. 0. 2.41919030e-002 0. 0. 0. 0. 0.
      3.77703495e-002 0. 0. 0. 6.90409839e-002 0. 1.88658312e-002
      1.56314839e-002 0. 7.99418464e-002 0. 0. 0. 0. 0. 0.
      5.21526374e-002 0. 0. 8.94328672e-003 0. 2.45482866e-002
      5.90447970e-002 0. 0. 0. 4.35488485e-002 1.50699485e-002 0. 0.
      4.49807756e-002 1.38412639e-002 0. 7.31837302e-002 0. 0.
      7.30479285e-002 3.91947776e-002 0. 1.05245098e-001 0. 0. 0. 0. 0.
      3.38702127e-002 2.37399787e-002 2.21145749e-002 6.71493262e-002
      3.61524411e-002 0. 0. 0. 0. 0. 5.19170091e-002 0. 0. 0. 0. 0. 0.
      1.70947406e-002 0. 0. 0. 0. 5.64263687e-002 0. 0. 8.99196640e-002
      0. 0. 0. 2.19991454e-003 3.12052500e-002 0. 2.35635918e-002 0. 0.
      2.01947615e-002 0. 0. 0. 3.38501446e-002 0. 0. 1.47519130e-002 0.
      0. 0. 0. 0. 3.04688253e-002 0. 0. 0. 0. 0. 0. 0. 0. 0. 0. 0. 0. 0.
      4.14086320e-002 2.50310060e-002 0. 6.10624859e-003 0. 0. 0. 0. 0.
      0. 1.67172831e-002 0. 0. 0. 0. 0. 0. 0. 4.87440787e-002 0. 0. 0.
      1.38552235e-002 0. 0. 2.18090992e-002 1.07722329e-002
      4.89709638e-002 0. 0. 0. 2.52857879e-002 0. 0. 2.38882098e-002 0.
      0. 0. 1.14166941e-002 0. 0. 0. 0. 0. 0. 0. 0. 4.23366092e-002
      5.67090213e-002 0. 0. 2.88451947e-002 3.82502377e-002
      7.65804052e-002 0. 4.75763492e-002 1.41523993e-002 1.02845982e-001
      0. 5.35795977e-003 0. 0. 1.67046227e-002 0. 0. 0. 1.16471268e-001
      2.15891395e-002 0. 0. 7.06305802e-002 0. 0. 0. 7.92162046e-002 0.
      3.91468033e-002 0. 0. 6.97377697e-002 0. 3.03321946e-002
      6.20114733e-004 4.48849723e-002 2.34965719e-002 0. 7.27694929e-002
      0. 0. 0. 5.52441366e-003 0. 0. 0. 0. 0. 3.74585129e-002 0. 0. 0.
      0. 4.30773832e-002 0. 0. 0. 0. 0. 0. 0. 0. 8.54111370e-003 0. 0.
      0. 0. 0. 0. 0. 0. 0. 0. 0. 4.41077165e-002 0. 0. 0. 0. 0. 0. 0. 0.
      0. 0. 0. 0. 0. 3.75980549e-002 0. 0. 0. 0. 0. 0. 0. 0. 0. 0. 0. 0.
      0. 0. 0. 0. 0. 2.94189155e-002 2.49823891e-002 3.78220007e-002 0.
      0. 0. 0. 0. 0. 2.32808888e-002 0. 0. 0. 0. 0. 4.45717983e-002 0.
      4.27432172e-002 0. 4.10929210e-002 0. 2.28965208e-002
      1.69781595e-002 0. 0. 3.29023749e-002 2.01643184e-002 0. 0. 0. 0.
      0. 0. 0. 0. 0. 0. 0. 0. 0. 0. 0. 0. 0. 0. 0. 0. 4.76848967e-002 0.
      0. 0. 0. 0. 1.20922476e-002 0. 0. 0. 0. 0. 0. 0. 1.82999857e-002
      0. 3.38890254e-002 0. 0. 0. 2.31500883e-002 0. 0. 0. 0. 0. 0. 0.
      0. 0. 0. 0. 0. 1.99107882e-002 0. 0. 0. 0. 5.77356964e-002 0. 0.
      0. 0. 0. 0. 0. 0. 1.42904939e-002 0. 0. 0. 4.32355255e-002 0. 0.
      0. 0. 0. 0. 0. 0. 0. 0. 0. 1.36278465e-003 4.25070710e-002 0. 0.
      0. 0. 0. 0. 5.26810177e-002 0. 0. 0. 0. 0. 0. 0. 0. 0. 0. 0. 0. 0.
      0. 0. 2.76936516e-002 0. 0. 0. 0. 0. 0. 0. 0. 0. 1.85577758e-002
      0. 0. 0. 0. 6.60528848e-003 5.82431480e-002 0. 0. 2.49632522e-002
      6.07275851e-002 0. 0. 0. 0. 0. 0. 0. 0. 0. 0. 0. 3.79199758e-002
      0. 2.16653813e-002 0. 0. 0. 0. 0. 4.47926223e-002 0. 0. 0. 0.
      6.39269575e-002 0. 0. 8.44646711e-003 4.63296957e-002 0. 0.
      1.04276285e-001 0. 0. 0. 0. 6.02457412e-002 0. 0. 0. 0. 0. 0. 0.
      3.16406563e-002 0. 0. 0. 0. 3.48372087e-002 0. 0. 0. 0. 0.
      2.63898782e-002 0. 0. 0. 0. 0. 1.97893009e-002 6.43239310e-003 0.
      3.77464183e-002 0. 0. 0. 0. 0. 0. 0. 0. 0. 0. 0. 0. 0.
      1.84509773e-002 0. 0. 0. 0. 4.44617569e-002 0. 0. 0. 0. 0. 0. 0.
      0. 0. 9.20032803e-003 0. 0. 0. 0. 0. 0. 0. 0. 0. 0. 0.
      6.73748786e-003 0. 0. 0. 0. 0. 0. 0. 0. 0. 0. 0. 0. 0. 0. 0. 0. 0.
      0. 0. 0. 5.40174730e-002 0. 0. 0. 0. 2.90225875e-002 0. 0. 0. 0.
      0. 0. 2.23289430e-002 0. 0. 0. 1.24222450e-002 0. 0. 0. 0. 0. 0.
      0. 0. 0. 0. 0. 0. 0. 0. 0. 0. 0. 0. 0. 0. 0. 0. 1.11083910e-002 0.
      0. 1.94841027e-002 0. 0. 0. 0. 0. 0. 0. 0. 0. 2.41919030e-002 0.
      0. 0. 0. 0. 0. 0. 0. 0. 6.90409839e-002 0. 1.88658312e-002
      1.56314839e-002 0. 0. 0. 0. 0. 0. 0. 0. 0. 0. 0. 0. 0. 0. 0. 0. 0.
      0. 0. 0. 0. 0. 3.60590331e-002 0. 0. 2.14430247e-003 0. 0.
      1.81399025e-002 0. 0. 1.05245098e-001 0. 0. 0. 0. 0.
      3.38702127e-002 0. 0. 2.45112013e-002 2.64512450e-002 0. 0. 0. 0.
      0. 5.19170091e-002 0. 0. 0. 0. 0. 0. 0. 0. 0. 0. 0. 0. 0. 0. 0. 0.
      0. 0. 2.19991454e-003 3.12052500e-002 0. 2.35635918e-002 0. 0.
      1.98128875e-002 0. 0. 0. 3.38501446e-002 0. 0. 1.47519130e-002 0.
      0. 0. 0. 0. 0. 0. 0. 0. 0. 0. 0. 0. 0. 0. 0. 0. 0. 0. 0. 0. 0.
      6.10624859e-003 0. 0. 0. 0. 0. 0. 0. 0. 0. 0. 0. 0. 0. 0. 0. 0. 0.
      0. 0. 0. 0. 2.18090992e-002 0. 0. 0. 0. 0. 0. 0. 0.
      2.38882098e-002 0. 0. 0. 0. 0. 0. 0. 0. 0. 0. 0. 0. 0.
      5.67090213e-002 0. 0. 0. 3.26979086e-002 0. 0. 4.75763492e-002 0.
      0. 0. 5.35795977e-003 0. 0. 0. 0. 0. 0. 4.10913117e-002 0. 0. 0.
      7.06305802e-002 0. 0. 0. 7.92162046e-002 0. 0. 0. 0.
      1.19347563e-002 0. 3.03321946e-002 0. 1.51304668e-002
      2.34965719e-002 0. 0. 0. 0. 0. 0. 0. 0. 0. 0. 0. 0. 0. 0. 0. 0. 0.
      0. 0. 0. 0. 0. 0. 0. 0. 0. 2.21702568e-002 0. 0. 0. 0. 0. 0. 0. 0.
      0. 0. 0. 0. 0. 0. 0. 0. 0. 0. 0. 0. 0. 0. 0. 0. 5.09381890e-002 0.
      0. 0. 0. 0. 0. 0. 0. 0. 0. 3.37305777e-002 0. 0. 0. 0. 0.
      4.25249673e-002 0. 0. 0. 4.02532965e-002 0. 0. 1.93672311e-002 0.
      0. 0. 7.17413286e-003 0. 0. 0. 0. 6.84872828e-003 0. 0. 0. 0. 0.
      0. 1.71631004e-003 1.57711934e-002 0. 4.07835990e-002
      6.39277548e-002 1.21039785e-001 0. 0. 0. 0. 0. 0. 0. 0. 0. 0. 0.
      0. 0. 0. 0. 2.26563159e-002 0. 0. 0. 0. 0. 0. 0. 0. 0. 0. 0. 0. 0.
      0. 0. 0. 5.89627847e-002 0. 0. 9.28712450e-003 0. 0. 0. 0. 0. 0.
      0. 0. 0. 0. 0. 0. 0. 0. 0. 0. 0. 0. 0. 0. 0. 4.40321527e-002 0.
      8.93511157e-003 0. 0. 0. 0. 0. 0. 0. 0. 8.92726891e-003 0.
      1.08880147e-001 0. 0. 0. 0. 0. 0. 4.21900302e-002 0. 0. 0. 0.
      2.86740455e-004 9.72494204e-003 0. 0. 2.14975756e-002
      3.18275020e-002 0. 2.71446109e-002 2.47639697e-002 0. 0. 0. 0. 0.
      0. 0. 0. 0. 0. 0. 0. 0. 0. 0. 5.07871248e-002 0. 0. 0. 0. 0. 0. 0.
      0. 0. 0. 0. 0. 0. 4.42561787e-003 0. 7.79894963e-002 0. 0.
      2.47447863e-002 0. 0. 0. 0. 0. 0. 0. 0. 0. 2.17229445e-002 0. 0.
      0. 0. 0. 0. 0. 0. 0. 0. 0. 0. 1.10513210e-001 0. 0. 0. 0. 0. 0. 0.
      0. 0. 1.99349858e-002 0. 0. 0. 0. 0. 0. 0. 5.27453888e-003 0. 0.
      0. 0. 0. 0. 0. 0. 0. 0. 0. 0. 0. 0. 0. 0. 0. 0. 0. 0. 0. 0. 0. 0.
      0. 0. 0. 0. 0. 0. 0. 0. 0. 0. 0. 0. 0. 3.34141105e-002 0. 0. 0. 0.
      0. 0. 3.87931056e-002 0. 7.41083845e-002 0. 0. 0. 1.64944641e-002
      0. 0. 0. 0. 0. 0. 0. 0. 0. 0. 0. 4.38595004e-002 0. 0. 0.
      1.40905036e-002 0. 0. 0. 0. 0. 3.55193950e-002 0. 0. 0.
      1.75109692e-002 0. 0. 0. 0. 3.25012021e-002 0. 0. 0. 0. 0. 0. 0.
      0. 0. 0. 0. 0. 0. 0. 0. 0. 4.86501046e-002 0. 2.63869800e-002 0.
      0. 0. 1.88553222e-002 0. 0. 0. 0. 0. 0. 0. 0. 2.50223596e-002
      1.03207696e-002 0. 0. 0. 0. 0. 0. 0. 0. 0. 0. 0. 0. 0.
      5.09086698e-002 0. 0. 0. 0. 0. 0. 0. 0. 0. 0. 0. 0. 0. 0. 0. 0. 0.
      0. 0. 8.83647148e-003 0. 0. 0. 0. 4.71619070e-002 0. 0. 0. 0. 0.
      0. 0. 0. 0. 8.53586476e-003 0. 2.45482866e-002 5.90447970e-002 0.
      0. 0. 0. 1.50699485e-002 0. 0. 0. 0. 0. 0. 0. 0. 7.30479285e-002
      3.91947776e-002 0. 0. 0. 0. 0. 0. 0. 0. 0. 0. 0. 0. 0. 0. 0. 0. 0.
      0. 0. 0. 0. 0. 0. 0. 1.70947406e-002 0. 0. 0. 0. 0. 0. 0. 0. 0. 0.
      0. 0. 0. 0. 0. 0. 0. 2.01947615e-002 0. 0. 0. 0. 0. 0. 0. 0. 0. 0.
      0. 0. 0. 0. 0. 0. 0. 0. 0. 0. 0. 0. 0. 0. 0. 0. 4.14086320e-002 0.
      0. 1.19425717e-003 0. 0. 0. 0. 0. 0. 1.67172831e-002 0. 0. 0. 0.
      0. 0. 0. 4.87440787e-002 0. 0. 0. 1.38552235e-002 0. 0.
      8.19871016e-003 1.07722329e-002 4.89709638e-002 0. 0. 0.
      2.52857879e-002 0. 0. 0. 0. 0. 0. 0. 0. 0. 0. 0. 0. 0. 0. 0. 0. 0.
      0. 0. 0. 0. 7.65804052e-002 0. 0. 1.41523993e-002 0. 0. 0. 0. 0.
      1.67046227e-002 0. 0. 0. 0. 2.15891395e-002 0. 0. 0. 0. 0. 0. 0.
      0. 3.91468033e-002 0. 0. 6.97377697e-002 0. 0. 0. 0. 0. 0. 0. 0.
      0. 0. 5.52441366e-003 0. 0. 0. 0. 0. 0. 0. 0. 0. 0.
      2.86270231e-002 0. 0. 0. 0. 0. 0. 0. 0. 0. 1.24116270e-002 0. 0.
      0. 0. 0. 0. 0. 0. 0. 0. 3.19959633e-002 0. 0. 0. 0. 0. 0.
      1.85622647e-002 8.82749707e-002 0. 6.84759812e-003 0. 0.
      2.14763153e-002 1.84132252e-002 0. 0. 0. 0. 0. 0. 0. 0. 0. 0.
      3.80630344e-002 0. 0. 0. 0. 0. 0. 1.60616636e-002 0. 0. 0. 0.
      3.97053622e-002 0. 0. 0. 0. 2.54380088e-002 0. 0. 0.
      4.58047166e-002 0. 0. 0. 0. 0. 0. 0. 0. 0. 0. 0. 0. 0. 0. 0. 0. 0.
      0. 0. 0. 0. 0. 0. 0. 0. 0. 0. 0. 0. 0. 0. 0. 0. 0. 0. 0. 0. 0. 0.
      1.52417077e-002 0. 0. 0. 0. 0. 3.47383507e-002 0. 0. 0. 0. 0. 0.
      0. 0. 0. 0. 0. 0. 0. 0. 0. 0. 0. 0. 0. 0. 0. 0. 0. 0. 0. 0. 0. 0.
      0. 0. 0. 2.23510843e-002 0. 0. 0. 1.47445416e-002 0. 0. 0. 0. 0.
      0. 0. 0. 0. 0. 4.44533229e-002 0. 0. 0. 2.81812288e-002 0. 0.
      2.31781397e-002 0. 0. 0. 4.41150330e-002 0. 0. 0. 0. 0. 0. 0. 0.
      0. 0. 0. 0. 0. 0. 0. 9.70267318e-003 0. 0. 4.95101660e-002 0. 0.
      0. 0. 0. 0. 0. 0. 0. 0. 1.54678542e-002 0. 0. 0. 0.
      6.43841401e-002 6.87274560e-002 0. 0. 0. 0. 0. 0. 0. 0. 0. 0. 0.
      1.01396129e-001 0. 0. 0. 0. 0. 0. 0. 0. 0. 0. 0. 0. 0. 0. 0. 0.
      4.15485501e-002 0. 0. 0. 0. 0. 0. 2.80537512e-002 0. 0. 0. 0. 0.
      0. 0. 3.23552676e-002 0. 0. 0. 0. 0. 0. 0. 0. 0. 0. 0. 0. 0. 0. 0.
      5.15620410e-002 0. 0. 0. 0. 0. 0. 0. 7.75677338e-002 0. 0. 0. 0.
      0. 0. 0. 0. 5.74751534e-002 0. 0. 0. 0. 0. 0. 0. 0. 0. 0. 0. 0. 0.
      0. 1.37121435e-002 0. 0. 0. 0. 3.64293042e-003 0. 0.
      1.37063516e-002 0. 0. 1.07934386e-001 0. 1.94004625e-002 0. 0. 0.
      0. 0. 1.28654065e-002 0. 0. 0. 0. 3.43190096e-002 0. 0. 0. 0. 0.
      0. 0. 0. 0. 0. 2.08064895e-002 0. 2.28288267e-002 0. 0.
      1.74235180e-002 0. 0. 0. 0. 0. 0. 0. 0. 5.85638657e-002
      1.72820035e-002 1.94661207e-002 0. 3.07983942e-002 0. 0. 0. 0. 0.
      0. 0. 0. 0. 0. 0. 0. 0. 0. 0. 0. 0. 0. 0. 0. 0. 0. 0.
      1.62379462e-002 0. 0. 0. 0. 0. 0. 0. 0. 0. 0. 0. 0. 0. 0. 0.
      3.77703495e-002 0. 0. 0. 3.31715494e-002 0. 0. 0. 0.
      5.90554141e-002 0. 0. 0. 0. 0. 0. 5.21526374e-002 0. 0.
      8.94328672e-003 0. 0. 0. 0. 0. 0. 4.35488485e-002 0. 0. 0.
      3.92767452e-002 1.38412639e-002 0. 7.31837302e-002 0. 0. 0. 0. 0.
      0. 0. 0. 0. 0. 0. 0. 3.30805266e-003 0. 2.69539878e-002
      3.61524411e-002 0. 0. 0. 0. 0. 0. 0. 0. 0. 0. 0. 0. 0. 0. 0. 0. 0.
      5.64263687e-002 0. 0. 8.99196640e-002 0. 0. 0. 0. 0. 0. 0. 0. 0.
      2.87513481e-003 0. 0. 0. 2.01086830e-002 0. 0. 0. 0. 0. 0. 0. 0.
      3.04688253e-002 0. 0. 0. 0. 0. 0. 0. 0. 0. 0. 0. 0. 0. 0.
      2.50310060e-002 0. 0. 0. 0. 0. 0. 0. 0. 0. 0. 0. 0. 0. 0. 0. 0. 0.
      0. 0. 0. 0. 0. 0. 0. 0. 0. 0. 0. 0. 0. 0. 0. 0. 0. 0. 0.
      1.14166941e-002 0. 0. 0. 0. 0. 0. 0. 0. 4.23366092e-002 0. 0. 0.
      2.88451947e-002 3.82502377e-002 0. 0. 0. 0. 0. 0. 0. 0. 0. 0. 0.
      0. 0. 4.06835303e-002 0. 0. 0. 6.12136088e-002 0. 0. 0. 0. 0. 0.
      0. 0. 0. 0. 0. 0. 4.48849723e-002 0. 0. 0. 0. 0. 0. 0. 0. 0. 0. 0.
      0. 3.74585129e-002 0. 0. 0. 0. 4.30773832e-002 0. 0. 0. 0. 0. 0.
      0. 0. 7.23971203e-002 0. 0. 0. 0. 0. 0. 0. 0. 0. 0. 0. 0. 0.
      3.64206620e-002 0. 0. 0. 0. 0. 0. 0. 0. 0. 0. 0. 0. 0. 0. 0. 0. 0.
      0. 0. 0. 0. 0. 0. 0. 0. 0. 0. 0. 0. 0. 0. 0. 0. 0. 0.
      1.32396333e-002 0. 0. 0. 0. 0. 0. 0. 0. 0. 0. 1.22134879e-001 0.
      0. 0. 9.23743844e-003 0. 0. 1.62070729e-002 0. 0. 0. 0. 0. 0. 0.
      0. 0. 0. 0. 0. 0. 0. 3.84293385e-002 0. 0. 0. 0. 0. 0. 0. 0. 0. 0.
      0. 0. 4.27491590e-002 0. 0. 0. 0. 0. 0. 0. 3.22055793e-003 0.
      6.63636625e-003 1.80129744e-002 0. 0. 0. 0. 0. 0. 0. 0. 0. 0. 0.
      0. 0. 0. 0. 0. 0. 0. 0. 0. 0. 0. 0. 0. 0. 0. 0. 0. 0. 0. 0. 0. 0.
      0. 0. 0. 0. 0. 0. 0. 0. 0. 0. 3.55940722e-002 0. 0. 0.
      4.40568104e-002 8.08562562e-002 0. 0. 0. 0. 0. 0. 0. 0.
      6.69809654e-002 0. 0. 0. 0. 0. 0. 0. 0. 0. 4.14882861e-002 0. 0.
      3.48850228e-002 0. 0. 0. 0. 3.83828655e-002 0. 0. 0. 0. 0. 0. 0.
      0. 0. 3.79857905e-002 0. 0. 0. 0. 5.95555529e-002 0. 0. 0. 0. 0.
      0. 4.06665669e-004 0. 0. 0. 0. 7.78990313e-002 0. 0. 0. 0. 0.
      1.13572702e-001 0. 0. 0. 2.48511471e-002 0. 1.35149164e-002 0. 0.
      0. 7.03238603e-003 0. 0. 0. 4.41956259e-002 0. 0. 1.96382180e-002
      0. 0. 0. 0. 0. 0. 0. 0. 5.29948296e-003 0. 0. 0. 0. 0. 0. 0. 0. 0.
      0. 0. 0. 0. 0. 0. 8.27646721e-003 0. 0. 0. 0. 0. 0. 0.
      6.32450432e-002 0. 0. 0. 0. 0. 0. 0. 0. 0. 0. 0. 0. 0. 0. 0. 0. 0.
      0. 4.70816530e-002 0. 0. 0. 0. 0. 0. 0. 0. 0. 0. 0. 0.
      2.29405202e-002 0. 0. 1.34594724e-001 0. 0. 0. 5.78636266e-002 0.
      0. 0. 0. 0. 0. 5.41214198e-002 0. 0. 0. 0. 0. 0. 6.87516332e-002
      0. 0. 0. 0. 0. 0. 0. 0. 0. 0. 0. 0. 0. 0. 0. 0. 0. 3.80163863e-002
      0. 0. 0. 0. 7.76663423e-002 0. 0. 0. 0. 0. 0. 0. 0. 0. 0. 0. 0. 0.
      0. 0. 0. 0. 0. 3.92526314e-002 0. 0. 0. 0. 0. 0. 0. 0.
      2.71978192e-002 0. 0. 0. 0. 0. 0. 0. 0. 0. 0. 0. 0. 0. 0. 0. 0.
      5.16928956e-002 0. 0. 0. 0. 7.99418464e-002 0. 0. 0. 0. 0. 0. 0.
      0. 0. 0. 0. 0. 0. 0. 0. 0. 0. 0. 0. 0. 4.49807756e-002 0. 0.
      9.00318567e-003 0. 0. 0. 0. 0. 0. 0. 0. 0. 0. 0. 0.
      2.37399787e-002 2.21145749e-002 6.71493262e-002 6.49838522e-003 0.
      0. 0. 0. 0. 0. 0. 0. 0. 0. 0. 0. 0. 0. 0. 0. 0. 0. 0. 0. 0. 0. 0.
      0. 0. 0. 0. 0. 0. 0. 0. 0. 0. 0. 0. 0. 0. 0. 0. 0. 0. 0. 0. 0. 0.
      0. 0. 0. 0. 0. 0. 0. 0. 0. 0. 0. 0. 7.74499914e-003 0. 0. 0. 0. 0.
      0. 0. 0. 0. 0. 0. 0. 0. 0. 0. 0. 0. 0. 0. 0. 0. 0. 0. 0. 0. 0. 0.
      0. 0. 0. 0. 0. 0. 0. 0. 0. 0. 0. 0. 0. 0. 0. 0. 0. 0. 0. 0. 0. 0.
      0. 0. 0. 0. 0. 2.65203733e-002 0. 1.02845982e-001 0. 0. 0. 0. 0.
      0. 0. 0. 1.16471268e-001 0. 0. 0. 3.35192643e-002 0. 0. 0. 0. 0.
      0. 0. 0. 0. 0. 0. 6.20114733e-004 0. 0. 0. 7.27694929e-002 0. 0.
      0. 0. 0. 0. 0. 0. 0. 0. 0. 0. 0. 0. 0. 0. 0. 0. 0. 0. 0. 0. 0.</_>
    <_>
      0. 0. 0. 0. 0. 0. 0. 0. 4.45519015e-002 0. 0. 0. 0. 0. 0. 0. 0. 0.
      0. 0. 2.84881182e-002 0. 0. 0. 0. 0. 0. 0. 0. 0. 0. 0. 0.
      1.49956450e-001 0. 0. 0. 0. 0. 1.30493147e-002 4.79579456e-002
      6.75470233e-002 0. 7.94187561e-002 0. 0. 0. 0. 0. 0. 0. 0. 0. 0.
      0. 0. 0. 0. 0. 0. 0. 0. 0. 0. 0. 0. 0. 0. 0. 0. 0. 0. 0. 0. 0.
      1.25128657e-001 0. 0. 0. 0. 6.53222352e-002 0. 0. 0. 0. 0. 0. 0.
      0. 3.35180797e-002 0. 0. 0. 0. 0. 0. 4.94561866e-002 0. 0. 0. 0.
      0. 2.76539810e-002 7.78628066e-002 0. 0. 0. 0. 0. 5.16087152e-002
      0. 0. 2.10154261e-002 0. 0. 3.68883200e-002 0. 0. 0.
      6.78107888e-002 0. 0. 0. 3.15607637e-002 0. 0. 0. 0. 0. 0.
      6.10545874e-002 0. 0. 0. 0. 0. 0. 0. 0. 0. 0. 1.04993477e-001 0.
      0. 0. 0. 0. 7.27290288e-002 0. 0. 0. 4.38873954e-002 0. 0. 0. 0.
      0. 0. 0. 2.09944099e-002 0. 0. 0. 0. 0. 0. 0. 0. 0.
      2.13356875e-002 0. 0. 0. 8.18831027e-002 2.43146811e-002 0. 0. 0.
      1.56124279e-001 0. 0. 0. 1.38830608e-002 4.72824387e-002 0.
      1.29232273e-001 0. 0. 0. 0. 0. 6.73419386e-002 1.33286472e-002 0.
      0. 7.50566125e-002 0. 0. 0. 2.24210899e-002 0. 0. 0.
      4.91173379e-002 0. 1.26148582e-001 0. 0. 0. 0. 0. 0. 0. 0. 0. 0.
      0. 6.11410849e-002 0. 0. 0. 0. 0. 0. 0. 0. 0. 0. 0. 0. 0. 0. 0. 0.
      0. 0. 0. 6.56480044e-002 0. 0. 0. 0. 0. 0. 0. 0. 0. 0. 0. 0. 0. 0.
      0. 0. 4.97087315e-002 0. 0. 0. 0. 0. 8.12683720e-003 0. 0. 0. 0.
      0. 0. 0. 0. 0. 0. 0. 0. 0. 0. 1.84855924e-003 0. 0.
      1.23700395e-001 0. 0. 0. 0. 0. 0. 0. 0. 0. 7.43347704e-002 0.
      2.22137161e-002 0. 0. 0. 0. 0. 0. 0. 0. 0. 5.82675301e-002 0. 0.
      2.73460001e-002 1.77724123e-001 4.85662045e-003 0. 0. 0. 0. 0. 0.
      0. 0. 0. 0. 0. 0. 0. 0. 0. 2.87654027e-002 0. 1.63322501e-003 0.
      0. 0. 0. 0. 1.02141134e-001 0. 0. 0. 0. 0. 0. 0. 2.06527933e-002
      0. 0. 0. 0. 0. 0. 0. 0. 0. 1.17509635e-002 0. 6.17601648e-002 0.
      8.95278007e-002 0. 0. 0. 0. 0. 0. 0. 0. 0. 0. 0. 2.29413569e-001
      0. 0. 0. 0. 0. 0. 0. 0. 0. 8.44363049e-002 0. 0. 0. 0. 0. 0.
      1.45644516e-001 0. 9.68848318e-002 0. 0. 0. 0. 0. 0. 0. 0. 0.
      1.83045156e-002 0. 0. 0. 7.67630106e-003 0. 0. 0. 8.61027651e-003
      0. 0. 0. 0. 0. 0. 0. 0. 0. 0. 0. 0. 0. 0. 0. 0. 0. 0. 0. 0. 0. 0.
      0. 0. 0. 0. 0. 0. 0. 0. 2.37861089e-002 0. 2.24137381e-002 0. 0.
      0. 0. 0. 0. 0. 0. 0. 0. 3.54667865e-002 0. 0. 0. 0. 0. 0. 0. 0. 0.
      0. 0. 0. 0. 0. 0. 0. 5.63458204e-002 0. 0. 0. 8.66063908e-002 0.
      1.08669303e-001 0. 0. 6.61748871e-002 0. 0. 0. 0. 0. 0. 0. 0. 0.
      0. 0. 0. 0. 1.93462074e-002 0. 0. 0. 0. 0. 0. 0. 0. 0.
      2.39889603e-002 0. 0. 0. 0. 0. 0. 0. 0. 5.62235937e-002
      8.85083675e-002 0. 0. 0. 0. 1.35775581e-001 0. 1.18457273e-001
      4.50126864e-002 0. 0. 0. 0. 0. 0. 0. 0. 0. 0. 0. 0. 0. 0.
      3.41884904e-002 0. 0. 0. 0. 0. 0. 0. 3.70876342e-002 0. 0. 0. 0.
      0. 4.43025716e-002 0. 0. 0. 0. 0. 5.75185120e-002 0.
      2.79710777e-002 0. 0. 0. 0. 1.06363393e-001 1.59020387e-002
      1.18695073e-001 0. 0. 0. 1.46182743e-003 0. 0. 0. 8.60637501e-002
      0. 0. 0. 0. 0. 0. 0. 0. 0. 0. 0. 0. 6.33669123e-002 0. 0. 0. 0. 0.
      0. 0. 0. 0. 0. 0. 6.74103722e-002 0. 0. 3.76225375e-002 0. 0. 0.
      0. 0. 0. 0. 0. 0. 0. 0. 0. 0. 0. 0. 4.45519015e-002 0. 0. 0. 0. 0.
      0. 0. 0. 0. 0. 0. 0. 0. 0. 0. 0. 0. 0. 0. 0. 0. 0. 0. 0.
      1.49956450e-001 0. 0. 0. 0. 0. 0. 4.79579456e-002 0. 0. 0. 0. 0.
      0. 0. 0. 0. 0. 0. 0. 0. 0. 0. 0. 0. 0. 0. 0. 0. 0. 0. 0. 0. 0. 0.
      0. 0. 0. 0. 0. 0. 0. 1.25128657e-001 0. 0. 0. 0. 6.53222352e-002
      0. 0. 0. 0. 0. 0. 0. 0. 0. 0. 0. 0. 0. 0. 0. 0. 0. 0. 0. 0. 0.
      2.76539810e-002 0. 0. 0. 0. 0. 0. 0. 0. 0. 2.10154261e-002 0. 0.
      3.68883200e-002 0. 0. 0. 0. 0. 0. 0. 3.15607637e-002 0. 0. 0. 0.
      0. 0. 6.10545874e-002 0. 0. 0. 0. 0. 0. 0. 0. 0. 0.
      1.04993477e-001 0. 0. 0. 0. 0. 7.27290288e-002 0. 0. 0. 0. 0. 0.
      0. 0. 0. 0. 0. 0. 0. 0. 0. 0. 0. 0. 0. 0. 0. 2.13356875e-002 0. 0.
      0. 8.18831027e-002 0. 0. 0. 0. 0. 0. 0. 0. 0. 4.72824387e-002 0.
      1.29232273e-001 0. 0. 0. 0. 0. 6.73419386e-002 0. 0. 0. 0. 0. 0.
      0. 2.24210899e-002 0. 0. 0. 0. 0. 0. 0. 0. 0. 0. 0. 0. 0. 0. 0. 0.
      0. 6.11410849e-002 0. 0. 0. 0. 0. 0. 0. 0. 0. 0. 0. 0. 0. 0. 0. 0.
      0. 0. 0. 0. 0. 0. 0. 0. 0. 0. 0. 0. 0. 0. 0. 0. 0. 0. 0. 0.
      2.17503924e-002 0. 0. 0. 0. 0. 8.12683720e-003 0. 0. 0. 0. 0. 0.
      0. 0. 0. 0. 0. 0. 0. 0. 0. 0. 0. 0. 0. 0. 0. 0. 0. 0. 0. 0. 0.
      1.62585899e-002 0. 0. 0. 0. 0. 0. 0. 0. 0. 0. 0. 0. 0. 0. 0. 0.
      4.85662045e-003 0. 0. 0. 0. 0. 0. 0. 0. 0. 0. 0. 0. 0. 0. 0. 0. 0.
      1.63322501e-003 0. 0. 0. 0. 0. 0. 0. 0. 0. 0. 0. 0. 0. 0. 0. 0. 0.
      0. 0. 0. 0. 0. 0. 1.17509635e-002 0. 0. 0. 2.96716075e-002 0. 0.
      0. 0. 0. 0. 0. 0. 0. 0. 0. 0. 0. 0. 0. 0. 0. 0. 0. 0. 0. 0. 0. 0.
      0. 0. 0. 0. 1.45644516e-001 0. 9.68848318e-002 0. 0. 0. 0. 0. 0.
      0. 0. 0. 0. 0. 0. 0. 7.67630106e-003 0. 0. 0. 0. 0. 0. 0. 0. 0. 0.
      0. 0. 0. 0. 0. 0. 0. 0. 0. 0. 0. 0. 0. 0. 0. 0. 0. 0. 0. 0. 0. 0.
      0. 0. 0. 0. 2.24137381e-002 0. 0. 0. 0. 0. 0. 0. 0. 0. 0. 0. 0. 0.
      0. 0. 0. 0. 0. 0. 0. 0. 0. 0. 0. 0. 0. 0. 0. 0. 0. 0.
      3.84555152e-003 0. 0. 0. 0. 6.61748871e-002 0. 0. 0. 0. 0. 0. 0.
      0. 0. 0. 0. 0. 0. 0. 0. 0. 0. 0. 0. 0. 0. 0. 0. 2.39889603e-002 0.
      0. 0. 0. 0. 0. 0. 0. 0. 8.85083675e-002 0. 0. 0. 0.
      1.35775581e-001 0. 0. 0. 0. 0. 0. 0. 0. 0. 0. 0. 0. 0. 0. 0. 0. 0.
      3.41884904e-002 0. 0. 0. 0. 0. 0. 0. 3.70876342e-002 0. 0. 0. 0.
      0. 4.43025716e-002 0. 0. 0. 0. 0. 0. 0. 0. 0. 0. 0. 0. 0. 0. 0. 0.
      0. 0. 0. 0. 0. 0. 0. 0. 0. 0. 0. 0. 0. 0. 0. 0. 0. 0. 0.
      6.33669123e-002 0. 0. 0. 0. 0. 0. 0. 0. 0. 0. 0. 6.74103722e-002
      0. 0. 3.76225375e-002 0. 0. 0. 0. 0. 0. 0. 0. 0. 0. 0. 0. 0. 0. 0.
      1.44620985e-002 0. 0. 0. 0. 0. 0. 0. 0. 0. 0. 0. 0. 0. 0. 0. 0. 0.
      0. 0. 0. 0. 0. 0. 0. 0. 0. 0. 0. 0. 0. 0. 2.06162850e-003 0. 0.
      7.94187561e-002 0. 0. 0. 0. 0. 0. 0. 0. 0. 0. 0. 0. 0. 0. 0. 0. 0.
      0. 0. 0. 0. 0. 0. 0. 0. 0. 0. 0. 0. 0. 0. 0. 0. 0. 0. 0. 0. 0. 0.
      0. 0. 0. 0. 0. 0. 0. 0. 0. 0. 0. 0. 0. 4.94561866e-002 0. 0. 0. 0.
      0. 0. 0. 0. 0. 0. 0. 0. 0. 0. 0. 0. 0. 0. 0. 0. 0. 0. 0. 0. 0. 0.
      0. 0. 0. 0. 0. 0. 0. 0. 0. 0. 0. 0. 0. 0. 0. 0. 0. 0. 0. 0. 0. 0.
      0. 0. 0. 0. 0. 0. 0. 0. 0. 0. 0. 0. 0. 0. 2.09944099e-002 0. 0. 0.
      0. 0. 0. 0. 0. 0. 0. 0. 0. 0. 0. 2.43146811e-002 0. 0. 0.
      1.56124279e-001 0. 0. 0. 0. 0. 0. 0. 0. 0. 0. 0. 0. 0.
      1.33286472e-002 0. 0. 7.50566125e-002 0. 0. 0. 0. 0. 0. 0. 0. 0.
      0. 0. 0. 0. 0. 0. 0. 0. 0. 0. 0. 0. 0. 0. 0. 0. 0. 0. 0. 0. 0. 0.
      0. 0. 0. 0. 0. 0. 0. 0. 0. 0. 0. 0. 0. 0. 0. 0. 0. 0. 0. 0. 0. 0.
      0. 0. 0. 0. 0. 4.97087315e-002 0. 0. 0. 0. 0. 0. 0. 0. 0. 0. 0. 0.
      0. 0. 0. 0. 0. 0. 0. 0. 0. 0. 0. 1.23700395e-001 0. 0. 0. 0. 0. 0.
      0. 0. 0. 7.43347704e-002 0. 2.22137161e-002 0. 0. 0. 0. 0. 0. 0.
      0. 0. 0. 0. 0. 0. 4.75836135e-002 0. 0. 0. 0. 0. 0. 0. 0. 0. 0. 0.
      0. 0. 0. 0. 0. 0. 0. 0. 0. 0. 0. 0. 0. 0. 0. 0. 0. 0. 0. 0. 0.
      2.06527933e-002 0. 0. 0. 0. 0. 0. 0. 0. 0. 0. 0. 0. 0.
      8.95278007e-002 0. 0. 0. 0. 0. 0. 0. 0. 0. 0. 0. 0. 0. 0. 0. 0. 0.
      0. 0. 0. 0. 0. 0. 0. 0. 0. 0. 0. 5.74359484e-002 0. 0. 0. 0. 0. 0.
      0. 0. 0. 0. 0. 0. 0. 0. 0. 0. 0. 0. 0. 0. 0. 0. 0. 0. 0. 0. 0. 0.
      0. 0. 0. 0. 0. 0. 0. 0. 0. 0. 0. 0. 0. 0. 0. 0. 0. 0. 0. 0. 0. 0.
      0. 0. 0. 0. 0. 0. 0. 0. 0. 0. 0. 0. 0. 3.54667865e-002 0. 0. 0. 0.
      0. 0. 0. 0. 0. 0. 0. 0. 0. 0. 0. 0. 0. 0. 0. 0. 0. 0. 0. 0. 0. 0.
      0. 0. 0. 0. 0. 0. 0. 0. 0. 0. 0. 0. 0. 0. 0. 0. 0. 0. 0. 0. 0. 0.
      0. 0. 0. 0. 0. 0. 0. 0. 0. 0. 5.62235937e-002 0. 0. 0. 0. 0. 0. 0.
      0. 0. 0. 0. 0. 0. 0. 0. 0. 0. 0. 0. 0. 0. 0. 0. 0. 0. 0. 0. 0. 0.
      0. 0. 0. 0. 0. 0. 0. 0. 0. 0. 0. 0. 0. 0. 5.75185120e-002 0.
      2.79710777e-002 0. 0. 0. 0. 0. 1.59020387e-002 1.18695073e-001 0.
      0. 0. 0. 0. 0. 0. 8.60637501e-002 0. 0. 0. 0. 0. 0. 0. 0. 0. 0. 0.
      0. 0. 0. 0. 0. 0. 0. 0. 0. 0. 0. 0. 0. 0. 0. 0. 0. 0. 0. 0. 0. 0.
      0. 0. 0. 0. 0. 0. 0. 0. 0. 0. 0. 0. 0. 0. 0. 0. 0. 0. 0. 0. 0. 0.
      0. 0. 0. 0. 0. 0. 0. 0. 0. 0. 0. 0. 0. 0. 0. 0. 0. 0. 0.
      1.30493147e-002 0. 6.75470233e-002 0. 0. 0. 0. 0. 0. 0. 0. 0. 0.
      0. 0. 0. 0. 0. 0. 0. 0. 0. 0. 0. 0. 0. 0. 0. 0. 0. 0. 0. 0. 0. 0.
      0. 0. 0. 0. 0. 0. 0. 0. 0. 0. 0. 0. 0. 0. 0. 3.35180797e-002 0. 0.
      0. 0. 0. 0. 0. 0. 0. 0. 0. 0. 0. 7.78628066e-002 0. 0. 0. 0. 0. 0.
      0. 0. 0. 0. 0. 0. 0. 0. 0. 6.78107888e-002 0. 0. 0. 0. 0. 0. 0. 0.
      0. 0. 0. 0. 0. 0. 0. 0. 0. 0. 0. 0. 0. 0. 0. 0. 0. 0. 0. 0. 0. 0.
      0. 0. 0. 0. 0. 0. 0. 0. 0. 0. 0. 0. 0. 0. 0. 0. 0. 0. 0. 0. 0. 0.
      0. 0. 0. 0. 0. 0. 0. 0. 0. 0. 1.38830608e-002 0. 0. 0. 0. 0. 0. 0.
      0. 0. 0. 0. 0. 0. 0. 0. 0. 0. 0. 0. 0. 4.91173379e-002 0. 0. 0. 0.
      0. 0. 0. 0. 0. 0. 0. 0. 0. 0. 0. 0. 0. 0. 0. 0. 0. 0. 0. 0. 0. 0.
      0. 0. 0. 0. 0. 0. 0. 6.56480044e-002 0. 0. 0. 0. 0. 0. 0. 0. 0. 0.
      0. 0. 0. 0. 0. 0. 0. 0. 0. 0. 0. 0. 0. 0. 0. 0. 0. 0. 0. 0. 0. 0.
      0. 0. 0. 0. 0. 0. 0. 0. 0. 0. 0. 0. 0. 0. 0. 0. 0. 0. 0. 0. 0. 0.
      0. 0. 0. 0. 0. 0. 0. 0. 0. 0. 0. 2.73460001e-002 1.77724123e-001
      0. 0. 0. 0. 0. 0. 0. 0. 0. 0. 0. 0. 0. 0. 0. 0. 2.87654027e-002 0.
      0. 0. 0. 0. 0. 0. 1.02141134e-001 0. 0. 0. 0. 0. 0. 0. 0. 0. 0. 0.
      0. 0. 0. 0. 0. 0. 0. 0. 0. 0. 0. 0. 0. 0. 0. 0. 0. 0. 0. 0. 0. 0.
      2.29413569e-001 0. 0. 0. 0. 0. 0. 0. 0. 0. 0. 0. 0. 0. 0. 0. 0. 0.
      0. 0. 0. 0. 0. 0. 0. 0. 0. 0. 0. 0. 0. 0. 0. 0. 0. 0. 0.
      8.61027651e-003 0. 0. 0. 0. 0. 0. 0. 0. 0. 0. 0. 0. 0. 0. 0. 0. 0.
      0. 0. 0. 0. 0. 0. 0. 0. 0. 0. 0. 0. 0. 2.37861089e-002 0. 0. 0. 0.
      0. 0. 0. 0. 0. 0. 0. 0. 0. 0. 0. 0. 0. 0. 0. 0. 0. 0. 0. 0. 0. 0.
      0. 0. 0. 5.63458204e-002 0. 0. 0. 0. 0. 1.08669303e-001 0. 0. 0.
      0. 0. 0. 0. 0. 0. 0. 0. 0. 0. 0. 0. 0. 1.93462074e-002 0. 0. 0. 0.
      0. 0. 0. 0. 0. 0. 0. 0. 0. 0. 0. 0. 0. 0. 0. 0. 0. 0. 0. 0.
      9.05302539e-002 0. 1.18457273e-001 4.50126864e-002 0. 0. 0. 0. 0.
      0. 0. 0. 0. 0. 0. 0. 0. 0. 0. 0. 0. 0. 0. 0. 0. 0. 0. 0. 0. 0. 0.
      0. 0. 0. 0. 0. 0. 0. 0. 0. 2.04150677e-002 0. 0. 0. 0.
      1.06363393e-001 0. 0. 0. 0. 0. 1.46182743e-003 0. 0. 0. 0. 0. 0.
      0. 0. 0. 0. 0. 0. 0. 0. 0. 0. 0. 0. 0. 0. 0. 0. 0. 0. 0. 0. 0. 0.
      0. 0. 0. 0. 0. 0. 0. 0. 0. 0. 0. 0. 0. 0. 0. 0. 0. 0. 0. 0. 0. 0.
      0. 0. 0. 0. 0. 0. 0. 0. 0. 2.84881182e-002 0. 0. 0. 0. 0. 0. 0. 0.
      0. 0. 0. 0. 0. 0. 0. 0. 0. 0. 0. 0. 0. 0. 0. 0. 0. 0. 0. 0. 0. 0.
      0. 0. 0. 0. 0. 0. 0. 0. 0. 0. 0. 0. 0. 0. 0. 0. 0. 0. 0. 0. 0. 0.
      0. 0. 0. 0. 0. 0. 0. 0. 0. 0. 0. 0. 0. 0. 0. 0. 0. 0. 0. 0. 0. 0.
      0. 0. 0. 0. 0. 0. 0. 0. 0. 0. 0. 0. 0. 0. 5.16087152e-002 0. 0. 0.
      0. 0. 0. 0. 0. 0. 0. 0. 0. 0. 0. 0. 0. 0. 0. 0. 0. 0. 0. 0. 0. 0.
      0. 0. 0. 0. 0. 0. 0. 0. 0. 0. 0. 0. 0. 0. 0. 0. 4.38873954e-002 0.
      0. 0. 0. 0. 0. 0. 0. 0. 0. 0. 0. 0. 0. 0. 0. 0. 0. 0. 0. 0. 0. 0.
      0. 0. 0. 0. 0. 0. 0. 0. 0. 0. 0. 0. 0. 0. 0. 0. 0. 0. 0. 0. 0. 0.
      0. 0. 0. 0. 0. 0. 0. 0. 1.26148582e-001 0. 0. 0. 0. 0. 0. 0. 0. 0.
      0. 0. 0. 0. 0. 0. 0. 0. 0. 0. 0. 0. 0. 0. 0. 0. 0. 0. 0. 0. 0. 0.
      0. 0. 0. 0. 0. 0. 0. 0. 0. 0. 0. 0. 0. 0. 0. 0. 0. 0. 0. 0. 0. 0.
      0. 0. 0. 0. 0. 0. 0. 0. 0. 0. 0. 0. 0. 0. 0. 0. 1.84855924e-003 0.
      0. 0. 0. 0. 0. 0. 0. 0. 0. 0. 0. 0. 0. 0. 0. 0. 0. 0. 0. 0. 0. 0.
      0. 5.82675301e-002 0. 0. 0. 0. 0. 0. 0. 0. 0. 0. 0. 0. 0. 0. 0. 0.
      0. 0. 0. 0. 0. 0. 0. 0. 0. 0. 0. 0. 0. 0. 0. 0. 0. 0. 0. 0. 0. 0.
      0. 0. 0. 0. 0. 0. 0. 0. 0. 0. 6.17601648e-002 0. 0. 0. 0. 0. 0. 0.
      0. 0. 0. 0. 0. 0. 0. 0. 0. 0. 0. 0. 0. 0. 0. 0. 8.44363049e-002 0.
      0. 0. 0. 0. 0. 0. 0. 0. 0. 0. 0. 0. 0. 0. 0. 0. 0. 1.83045156e-002
      0. 0. 0. 0. 0. 0. 0. 0. 0. 0. 0. 0. 0. 0. 0. 0. 0. 0. 0. 0. 0. 0.
      0. 0. 0. 0. 0. 0. 0. 0. 0. 0. 0. 0. 0. 0. 0. 0. 1.66580062e-002 0.
      0. 0. 0. 0. 0. 0. 0. 0. 0. 0. 0. 0. 0. 0. 0. 0. 0. 0. 0. 0. 0. 0.
      0. 0. 0. 0. 0. 0. 0. 0. 0. 0. 8.66063908e-002 0. 8.00220587e-004
      0. 0. 0. 0. 0. 0. 0. 0. 0. 0. 0. 0. 0. 0. 0. 0. 0. 0. 0. 0. 0. 0.
      0. 0. 0. 0. 0. 0. 0. 0. 0. 0. 0. 0. 0. 0. 0. 0. 0. 0. 0. 0. 0. 0.
      0. 0. 0. 0. 0. 0. 0. 0. 0. 0. 0. 0. 0. 0. 0. 0. 0. 0. 0. 0. 0. 0.
      0. 0. 0. 0. 0. 0. 0. 0. 0. 0. 0. 0. 0. 2.00910289e-002 0. 0. 0. 0.
      0. 0. 0. 0. 2.81381104e-002 0. 0. 0. 0. 0. 0. 0. 0. 0. 0. 0. 0. 0.
      0. 0. 0. 0. 0. 0. 0. 0. 0. 0. 0. 0. 0. 0. 0. 0. 0. 0. 0. 0. 0. 0.
      0. 0. 0. 0. 0. 0. 0. 0.</_>
    <_>
      6.83610961e-002 0. 0. 0. 0. 0. 0. 6.53774589e-002 0. 0.
      1.84068345e-002 0. 0. 0. 0. 0. 0. 0. 0. 0. 0. 0. 1.75110456e-002
      0. 0. 0. 2.50366554e-002 0. 0. 0. 0. 0. 8.19471404e-002 0. 0. 0.
      0. 0. 0. 0. 0. 0. 0. 0. 3.57747264e-002 0. 0. 0. 3.02151870e-002
      0. 1.94606762e-002 0. 0. 0. 2.09460407e-002 0. 0. 4.77410369e-002
      4.17029560e-002 0. 0. 0. 0. 0. 0. 0. 0. 2.41298247e-002 0.
      1.87963694e-002 1.73156504e-002 5.63900322e-002 0. 0. 0. 0. 0.
      4.01709080e-002 0. 0. 0. 0. 0. 0. 0. 0. 0. 8.22490305e-002 0. 0.
      0. 2.77287476e-002 6.39591441e-002 0. 0. 0. 0. 0. 0. 0. 0.
      9.09391418e-002 3.08199432e-002 0. 0. 7.57682649e-003 0.
      8.09321254e-002 0. 0. 0. 0. 0. 0. 0. 0. 0. 0. 0. 1.80968538e-001
      0. 0. 0. 0. 0. 0. 4.31652516e-002 0. 0. 0. 0. 2.35830583e-002 0.
      0. 0. 0. 0. 0. 1.18506551e-002 0. 0. 0. 0. 0. 0. 0. 0. 0.
      2.53909547e-003 0. 0. 0. 0. 5.21773472e-002 0. 0. 0. 0. 0. 0. 0.
      0. 6.24720156e-002 0. 0. 0. 0. 7.57641941e-002 0. 0. 0. 0. 0. 0.
      0. 0. 0. 0. 7.34153464e-002 0. 0. 0. 0. 0. 0. 1.12314820e-002 0.
      0. 0. 0. 3.71689014e-002 1.11486288e-002 1.09691704e-002
      8.22133496e-002 0. 0. 0. 2.08757147e-002 0. 0. 0. 0.
      2.53338963e-002 7.90819377e-002 4.12829854e-002 0. 2.23635212e-002
      0. 0. 4.06788550e-002 0. 0. 5.25114276e-002 0. 0. 0. 0. 0. 0. 0.
      1.44494146e-001 0. 0. 0. 0. 3.27744856e-002 5.88021390e-002
      5.89776151e-002 1.05896592e-001 0. 0. 0. 0. 0. 0. 0. 0. 0. 0.
      1.55359983e-001 0. 0. 0. 0. 0. 0. 0. 0. 0. 0. 0. 0. 0. 0. 0. 0. 0.
      1.14602931e-002 0. 0. 0. 0. 0. 0. 0. 0. 1.79107543e-002 0. 0.
      1.08446352e-001 2.34852843e-002 0. 1.30281508e-001 0.
      7.55707547e-002 0. 0. 0. 0. 0. 0. 3.79655696e-002 0. 0. 0.
      1.68071672e-001 0. 0. 0. 0. 0. 0. 0. 0. 0. 0. 0. 0. 0. 0. 0. 0. 0.
      0. 0. 0. 0. 0. 0. 0. 0. 0. 0. 0. 3.56555022e-002 0. 0. 0. 0. 0. 0.
      0. 2.36830320e-002 0. 0. 0. 0. 1.02455087e-001 0. 7.74641288e-003
